svm_type c_svc
kernel_type rbf
gamma 0.0078125
nr_class 2
total_sv 5865
rho 1.00285
label 0 4
nr_sv 2863 3002
SV
32 1485:0.22441412 1548:0.62884487 5300:0.2967064 5579:0.3914007 10694:0.22773545 11443:0.29469989 12909:0.33988055 15917:0.24234891 
32 4418:0.41109008 5128:0.28505985 10079:0.41109008 11633:0.41109008 15264:0.39357641 16301:0.506807 
32 2321:0.34381218 4889:0.59189188 13491:0.42558337 13634:0.59189188 
32 1736:0.83142761 17219:0.55563309 
10.15854947352393 2571:0.46701286 4276:0.3568895 9181:0.44149284 9254:0.29819865 10042:0.25865712 10303:0.49474941 12510:0.24291981 
32 1680:0.34393855 2427:0.2909471 6116:0.17172978 8669:0.24983772 9009:0.23384564 9205:0.1805198 10454:0.26087851 12510:0.18924314 13447:0.40257835 13466:0.27481537 14598:0.19555948 15907:0.27585986 16253:0.40257835 
32 3762:0.25857721 4590:0.30169506 5740:0.45587966 9205:0.20442059 9979:0.38947597 10042:0.22818203 10503:0.21782491 10978:0.45587966 13345:0.26349436 16631:0.25306537 
32 2752:0.62742516 4977:0.35641683 8467:0.29325892 9153:0.55499942 11149:0.29202665 
32 1835:0.62643213 4994:0.77947597 
32 287:0.26898482 491:0.359582 1504:0.19128803 4275:0.2860617 5622:0.23235896 6120:0.24279636 6172:0.28345501 8467:0.16806886 8916:0.15219917 9134:0.27258582 11705:0.26898482 11711:0.26569736 12538:0.34426273 16316:0.2117781 17322:0.23368478 
32 1169:0.53850133 10078:0.64809925 14171:0.53850133 
32 4051:0.25897156 5766:0.24263711 5770:0.25267054 6134:0.15548437 6402:0.24051066 7060:0.27113144 8788:0.21813899 11149:0.32017266 11669:0.21345252 11698:0.27630301 12265:0.34394871 12336:0.35117193 13310:0.26454246 13330:0.26660813 
32 2542:0.30569676 3267:0.33514656 5663:0.42515625 6933:0.33226349 8788:0.26964239 10437:0.40704332 11760:0.40704332 12510:0.19985651 14211:0.24300461 
32 5129:0.35537176 6489:0.49670385 9094:0.47554278 13932:0.49670385 14629:0.3246954 15624:0.22071124 
32 2339:0.26287389 5093:0.38837532 6401:0.32587533 8059:0.35226077 10494:0.40565754 12400:0.40565754 15733:0.27796983 16675:0.27904896 17107:0.25598422 
32 4313:0.36733399 6825:0.48614136 8467:0.30178212 9011:0.64566046 15455:0.34753767 
32 3760:0.16767649 8533:0.40333156 9137:0.2459548 12336:0.41180187 12607:0.40333156 15417:0.27233686 15455:0.21710004 16273:0.28856762 16622:0.34458206 16700:0.21581183 17103:0.21581183 
32 1061:0.59659332 2995:0.80254371 
32 140:0.44177453 1147:0.23054217 1371:0.28201168 4570:0.30923564 6134:0.22576838 6152:0.20420697 8667:0.32551118 14526:0.37603516 15567:0.29010081 16611:0.39030502 
32 3396:0.44937779 6116:0.26094315 7144:0.43765921 8739:0.47806258 14634:0.46701702 16638:0.30294218 
32 383:0.40937964 1102:0.30463725 1504:0.25079066 6071:0.29461954 7230:0.22457405 8623:0.47143467 11913:0.30817693 13615:0.47143467 
32 3199:0.50634824 6134:0.22889818 7248:0.50634824 14598:0.24596752 14859:0.30942799 15413:0.31873539 16773:0.24841406 17144:0.33953064 
32 729:0.30053473 1151:0.31295908 3318:0.32099766 8241:0.2334777 8862:0.30626714 9321:0.35348233 12466:0.38124879 15551:0.38124879 15919:0.22965971 16283:0.30329849 
32 1831:0.3899517 5035:0.3899517 5362:0.31831186 14329:0.40730407 14724:0.3899517 15907:0.27909809 16319:0.27129542 16767:0.35369057 
27.67677913646215 1667:0.34512993 4130:0.31731622 4601:0.38189767 5397:0.23191728 5514:0.38189767 5525:0.33781397 6370:0.23923324 8593:0.36562769 11744:0.29602385 14242:0.20507052 
32 6116:0.17235416 9190:0.26912266 9387:0.40404205 9636:0.31850244 12263:0.26572457 12580:0.2876839 13444:0.35085793 14813:0.40404205 15055:0.32457757 16852:0.29681613 
32 11242:0.46572875 11460:0.4459124 12449:0.5605157 16656:0.51969318 
32 466:0.25591189 3760:0.35252441 5787:0.30334345 9763:0.30334345 9764:0.76632828 11149:0.19733758 
32 723:0.34578173 729:0.400785 3650:0.39733729 6756:0.48676274 8467:0.23763728 9104:0.23190812 10440:0.33437239 11809:0.3208329 
5.205158873592843 5285:0.27485568 5984:0.19721852 8916:0.1989232 9442:0.30908381 10389:0.23397436 12048:0.44994888 12053:0.38149263 13982:0.2561162 16971:0.24749351 17460:0.46997105 
5.855953535313521 1237:0.87138249 6557:0.49060428 
32 1626:0.32032893 5397:0.23697536 6071:0.24386928 6928:0.26166567 7526:0.39022679 9466:0.23280208 9634:0.39022679 9725:0.28834098 11077:0.19209323 11158:0.29381601 14187:0.3134794 17313:0.2233891 
32 3154:1 
32 12924:1 
32 465:0.57500123 5282:0.38020868 8889:0.62764161 15288:0.36177473 
32 690:0.21253294 1895:0.2989996 2607:0.23388578 4961:0.31628295 5180:0.28114612 5911:0.34997752 9182:0.2237002 10697:0.17014569 12278:0.33506744 13862:0.30957847 14883:0.2989996 16065:0.18063252 16103:0.31628295 
32 11262:0.68345615 14810:0.72999157 
32 459:0.32228754 1070:0.45029536 4397:0.47033295 6976:0.28503706 13998:0.35654202 14683:0.40182398 15692:0.31987639 
32 288:0.48687072 5128:0.44535609 5421:0.51094024 9104:0.29295373 17096:0.46661873 
32 10632:0.66132157 14182:0.75010252 
32 4723:0.44187827 5021:0.40078854 5622:0.29824423 9719:0.317491 13190:0.4615413 13777:0.27231507 16004:0.28912464 17234:0.28912464 
32 14190:0.77960227 16973:0.62627494 
27.41018118931999 3069:0.37493888 3760:0.18244837 6116:0.18720836 11861:0.43886407 12510:0.20630025 14854:0.35624196 15056:0.43886407 15567:0.25492293 16004:0.27491887 16865:0.30959474 
32 9937:0.36988449 11104:0.3646961 12412:0.56750578 13313:0.3780019 16770:0.43326371 16773:0.2784179 
32 2705:0.70710678 6534:0.70710678 
32 2305:0.34701639 2682:0.33749302 3053:0.37659866 8535:0.40618094 11111:0.24769237 11913:0.26552055 14852:0.40618094 16445:0.31240735 17289:0.25383971 
28.55908971561901 472:0.24070509 1232:0.3536727 1288:0.36284835 2296:0.32950295 8661:0.19825439 10379:0.28917131 14242:0.21014649 14561:0.37467782 15232:0.33434618 15531:0.17804553 16466:0.26920726 16673:0.23090164 
30.42204894682326 82:0.31166911 8057:0.36179968 9137:0.27179797 10571:0.40279934 11786:0.35458054 14503:0.28196347 15500:0.35805114 15531:0.20277681 16750:0.24985836 16865:0.31442471 
32 1540:0.20198843 1618:0.2376179 4326:0.24709277 5583:0.277271 8321:0.30009994 8916:0.13267472 9140:0.20198843 10185:0.31345402 11228:0.31345402 12805:0.30009994 12892:0.2832758 14680:0.31345402 15116:0.31345402 16852:0.23026862 
32 4100:0.26902811 4986:0.26006643 5282:0.218386 8715:0.36723187 10217:0.39746769 11429:0.31930923 14301:0.41515452 15013:0.41515452 15028:0.26980019 
32 562:0.16460927 1242:0.33151775 1485:0.19007954 2538:0.2569724 3056:0.24961183 3324:0.33151775 6199:0.14704761 6627:0.33151775 6925:0.1650456 7404:0.31739411 8661:0.16794369 12510:0.15583913 12613:0.33151775 13463:0.2383686 14429:0.33151775 
32 8467:0.35725255 9058:0.5368021 10175:0.76433901 
32 1504:0.28484246 7026:0.53544504 7032:0.53544504 11140:0.51263348 14242:0.28752203 
32 2421:0.32159061 2558:0.31345828 3417:0.30681369 5108:0.28472344 5303:0.31345828 5966:0.28819696 6265:0.31345828 10042:0.17361025 10389:0.1726797 11206:0.33207501 11809:0.21887581 12336:0.35413613 
32 562:0.26118892 3203:0.3987609 3738:0.3987609 5179:0.3515369 6116:0.22438947 12010:0.48771543 15459:0.4494048 
32 851:0.29692373 5377:0.31013647 5862:0.31013647 6368:0.31013647 8106:0.31013647 8387:0.31013647 9381:0.18912369 10568:0.29692373 10697:0.15077649 13306:0.19203143 14156:0.31013647 14395:0.26112366 15271:0.20213833 15624:0.13780969 16773:0.15215272 
32 3035:0.41437299 5991:0.24831513 6662:0.43898318 9220:0.45851739 10572:0.39172949 17472:0.45851739 
32 5059:1 
32 5282:0.43777051 6152:0.34027651 6829:0.83220723 
32 4934:0.61831922 6152:0.28581343 17058:0.50517955 17135:0.52989212 
32 3785:0.4422731 5615:0.56960383 8674:0.5949505 9466:0.35493645 
32 267:0.28727064 1147:0.19776156 2688:0.39721058 3017:0.23528097 4358:0.36070732 6134:0.19366655 6925:0.21328422 8916:0.18133261 13136:0.22295213 13453:0.20392571 13854:0.27606682 14211:0.24486546 15624:0.19036561 16600:0.27683631 17292:0.28089438 
26.73124604240727 2341:0.40606315 2424:0.30814515 4526:0.35710415 7214:0.2825044 8279:0.36235308 16845:0.42413246 16884:0.37517346 17144:0.28440104 
32 1211:0.49040597 4584:0.41290405 10822:0.44319145 11825:0.28934558 12876:0.26148556 13107:0.49040597 
32 15733:0.66232045 16292:0.74922068 
32 5546:0.40165539 9185:0.37752218 9316:0.60692581 11949:0.41277405 14629:0.39674752 
32 472:0.44307986 6521:0.37978269 8352:0.58476006 9205:0.32302571 9437:0.46168757 
32 642:0.37462891 3138:0.39129943 3785:0.29088338 4986:0.24512282 5859:0.37462891 9121:0.23128891 12924:0.28584264 14030:0.31129417 14269:0.31434109 17095:0.30096149 
32 2321:0.42954652 12169:0.70798392 14054:0.56057877 
32 9205:0.64830867 16971:0.76137761 
32 562:0.15568849 1576:0.28336397 2636:0.56672793 3150:0.28336397 5021:0.27227874 6068:0.24716968 6557:0.17653528 7230:0.14936438 13682:0.21485581 16223:0.5090425 
32 6134:0.41192269 11352:0.9112188 
32 332:0.28042189 2264:0.23300067 2519:0.28042189 3300:0.23300067 4945:0.23300067 7462:0.18803625 8241:0.17173105 8636:0.28042189 10162:0.23300067 15262:0.24350991 15912:0.28042189 16065:0.14473304 16319:0.18678225 16905:0.53695016 
32 3760:0.41517025 6191:0.79447096 17065:0.4432263 
32 5984:0.30917218 9419:0.73675624 12113:0.49925098 15531:0.3351884 
32 6959:0.72593628 9666:0.35969737 11283:0.41548049 13091:0.4135339 
32 562:0.16038783 1589:0.21115556 2242:0.26839176 5787:0.23110498 6017:0.30925447 8337:0.30925447 10162:0.26839176 10276:0.32301591 11453:0.20873025 11778:0.21445329 12211:0.28572913 12683:0.29949057 14458:0.22308197 15066:0.32301591 15531:0.14695659 
32 82:0.33672773 1751:0.40011379 5287:0.32514903 6521:0.25386963 9009:0.27971588 10264:0.24853871 10309:0.34286823 11111:0.2936509 13593:0.4610312 
32 77:0.38074738 1596:0.24794904 2629:0.39769017 4100:0.25771088 6134:0.17977856 6248:0.35940199 9628:0.31947493 12811:0.38074738 15245:0.28741436 15670:0.19763976 16638:0.19694906 
32 562:0.28718255 8916:0.24480759 10261:0.49412973 12241:0.48056906 16033:0.47477695 17008:0.39632242 
32 1542:0.38156024 3625:0.3537711 3876:0.38156024 6116:0.16276399 8856:0.30651734 9732:0.33751549 11402:0.38156024 13427:0.32125989 15477:0.31703585 
32 562:0.2649699 2030:0.38982243 5454:0.42066389 5991:0.28899904 13115:0.48226379 15802:0.53364081 
6.183264898447959 1842:0.33682132 5984:0.19657754 6116:0.39965249 10766:0.23138698 12510:0.22020493 14177:0.29206188 15015:0.26816507 15624:0.20815375 15670:0.23280204 16618:0.35510978 16620:0.38922666 16638:0.23198846 
32 2132:0.36993301 2776:0.38199345 5143:0.33593654 7409:0.30246085 8958:0.2914618 9356:0.3238761 13896:0.28408797 15245:0.28835499 16728:0.39899169 
31.84287704400423 271:0.51969632 7073:0.54282216 7471:0.45102731 14706:0.34169495 14760:0.33923261 
32 2523:0.28917015 3860:0.25096124 4331:0.28004036 5282:0.15888263 5984:0.25349417 6426:0.15976669 7233:0.26717265 9095:0.28917015 10517:0.30203787 12068:0.17918263 12945:0.30203787 14262:0.19357395 15010:0.30203787 16229:0.30203787 16301:0.18618171 17234:0.18920644 
32 619:0.70788296 16820:0.52305907 17144:0.47466928 
32 1147:0.20059843 6152:0.3553675 6614:0.34255745 7594:0.43455747 8667:0.28323248 10375:0.43455747 10818:0.31571924 11854:0.31090851 17313:0.24876662 
32 1102:0.31256821 4218:0.48370805 10057:0.31345213 11880:0.46310065 16301:0.59633312 
10.24774240111718 1438:0.67632089 6876:0.33406764 10057:0.43826895 13900:0.48878337 
32 2607:0.29818825 2826:0.44619722 6230:0.44619722 8989:0.32082568 9432:0.49403186 15705:0.3359582 16065:0.23029401 
32 2840:0.37505122 3483:0.27635165 4185:0.39174054 6152:0.16017658 7024:0.32157154 9381:0.2388865 9841:0.39174054 13156:0.25924865 13497:0.30130076 14078:0.36320997 
32 919:0.40422148 3098:0.38449883 3286:0.29249995 6116:0.22063812 6876:0.2554859 8669:0.32099105 10334:0.51723193 14524:0.34451571 
32 690:0.26932507 3233:0.36849869 3446:0.44349699 3631:0.44349699 11241:0.37340839 11675:0.32397274 13301:0.39230268 
18.12748560160445 964:0.37790976 1147:0.19303355 1328:0.28336591 3762:0.23718789 4440:0.30067322 4447:0.30898812 6876:0.20655423 8298:0.3572588 8773:0.28654352 9511:0.36312589 13136:0.21762187 16093:0.25664079 
32 1371:0.22347885 3382:0.37890599 3448:0.32884002 5403:0.3092954 5497:0.39576684 7390:0.27674516 14099:0.37890599 14892:0.39576684 16638:0.19599657 17065:0.17565021 
32 4276:0.27640811 4278:0.34754813 4977:0.22735605 5584:0.38317953 6116:0.17072827 6521:0.21100014 8240:0.37108164 9009:0.23248188 9205:0.17946703 13091:0.28363493 13777:0.23614097 15624:0.17784316 16336:0.31549787 16638:0.19820714 
32 13764:0.70710678 14463:0.70710678 
32 1453:0.50199099 6116:0.23694934 10530:0.5554696 11077:0.27343574 14390:0.5554696 
32 9762:1 
32 7850:0.70710678 14972:0.70710678 
32 4049:0.56960923 6167:0.64388078 13307:0.51084524 
32 1970:0.44890461 6134:0.21196055 9121:0.27714534 11481:0.44890461 12510:0.22041021 14234:0.46888031 15015:0.26841506 15415:0.23447737 15919:0.28244789 
32 980:0.30527757 4020:0.32925749 4131:0.29755777 5181:0.23023763 6152:0.13462824 9954:0.32925749 10177:0.32925749 10697:0.32014481 11997:0.30527757 12564:0.27357785 14194:0.20726055 16527:0.32925749 
32 732:0.81951552 1104:0.57305699 
32 289:0.2939731 445:0.34409404 1372:0.34409404 5033:0.34409404 6133:0.25135929 6238:0.27374041 10739:0.27374041 11456:0.3294346 15610:0.34409404 16748:0.34409404 
13.85573520510231 6609:0.78270878 9009:0.62238811 
32 5270:0.45074188 9466:0.89265433 
32 6925:0.32669938 11459:0.52716077 14213:0.45504067 14704:0.51284392 15567:0.38117993 
32 1079:0.31769858 4570:0.33921928 5484:0.40020163 6876:0.27060927 8773:0.37540423 9121:0.32382222 10264:0.28275926 15670:0.27226419 15872:0.38824917 
32 1185:0.38476204 6133:0.30314526 8093:0.41498556 8447:0.41498556 8787:0.41498556 10989:0.38476204 15531:0.18879833 16316:0.24440838 
32 258:0.30857358 2903:0.3328124 3251:0.3328124 4313:0.18934613 6152:0.13608178 6551:0.30857358 6557:0.18737947 7556:0.25229278 10042:0.16658302 13246:0.30077042 14665:0.28433476 15630:0.3328124 15991:0.22805395 16673:0.19636343 16679:0.18577754 
32 84:0.24801178 1216:0.19141216 2053:0.1937805 2091:0.259048 3056:0.19504671 3709:0.259048 4052:0.19141216 4190:0.259048 6632:0.184446 8847:0.19141216 10610:0.18721639 11149:0.12057043 11982:0.24801178 12336:0.26448823 12778:0.259048 13665:0.259048 14456:0.24801178 14458:0.17890431 15271:0.16884029 15624:0.11510844 17164:0.259048 
32 1337:0.30262155 5282:0.19392588 11714:0.3103946 12025:0.33316271 12116:0.28354531 13854:0.23756005 13909:0.33316271 14781:0.32610042 15495:0.36865554 15705:0.27757423 17086:0.3103946 
32 917:0.45670307 4059:0.45670307 7272:0.42344126 11149:0.21256634 13453:0.2173924 14184:0.32365581 14755:0.3355018 16756:0.30624119 
32 694:0.33699042 5362:0.34741319 7921:0.44454143 8428:0.42560264 8429:0.3693665 8771:0.30233541 13463:0.31963513 14242:0.23870882 
32 4097:0.39463725 5726:0.39463725 6152:0.161361 6199:0.17504482 9381:0.24065293 11577:0.22122736 13420:0.39463725 13575:0.30841262 13744:0.31702244 13761:0.31702244 15991:0.27041836 
32 5816:0.55654654 10616:0.56237318 13453:0.32977671 13986:0.51501425 
32 3850:0.60887801 6199:0.27007318 6495:0.60887801 8661:0.30845171 10766:0.30075433 
32 6903:0.79975632 15415:0.41773854 16065:0.43114306 
32 690:0.26701652 3760:0.18279403 6757:0.43969551 6758:0.40767236 9933:0.36093677 13711:0.34082523 13854:0.2833379 14911:0.35691687 17322:0.28574887 
32 5239:0.38919556 6503:0.35715137 6754:0.27904669 8661:0.22289184 9970:0.30035018 10042:0.22022596 10229:0.38206917 11149:0.20478485 12510:0.20682689 13429:0.31479125 13744:0.35345099 
32 14812:1 
32 2732:0.45609564 3760:0.50366004 5770:0.44499841 15624:0.26916864 15656:0.51752101 
32 562:0.25628367 6565:0.51614704 8459:0.42886312 12907:0.46645426 16450:0.51614704 
32 2817:0.35603276 3715:0.31310592 3764:0.37187578 5676:0.24936044 7084:0.26117167 8773:0.25482146 9209:0.27318624 9466:0.2218542 10694:0.21637492 12336:0.37968549 14878:0.35603276 
32 6276:0.21993868 6578:0.39749011 7059:0.42871343 10694:0.24944576 10922:0.35192181 11577:0.48065985 13307:0.24986873 13496:0.36096117 
32 293:0.39608975 2321:0.23007662 6049:0.39608975 6706:0.32514172 6925:0.19719267 7466:0.300261 12847:0.33349321 12953:0.300261 14629:0.25892395 14859:0.24204934 15417:0.26744706 
32 1621:0.3734101 6046:0.43551092 9205:0.2039771 9437:0.29153621 10557:0.45489061 11669:0.2823024 12388:0.45489061 16638:0.22527658 
21.4084817711679 465:0.39975413 2893:0.50249436 3029:0.31951032 4313:0.28588286 6142:0.27596654 6925:0.25016604 10503:0.240098 12375:0.32848066 15624:0.22328426 17065:0.22301828 
32 6876:0.39601247 15897:0.63199472 16620:0.66615074 
32 82:0.30861031 5393:0.27516131 6071:0.27580988 10757:0.44133645 14242:0.23698782 15441:0.30241819 16306:0.4225342 16505:0.32610622 16669:0.35453713 
32 6134:0.25045062 8184:0.55402463 16377:0.51367486 16416:0.53042153 16971:0.29175733 
32 3893:0.6253447 12375:0.42697851 12588:0.65317177 
32 2286:0.40377416 4692:0.40377416 6765:0.30608626 7230:0.19234308 7987:0.40377416 10766:0.19944361 12152:0.35062529 13345:0.23337784 16869:0.40377416 
32 314:0.60257346 3673:0.57690203 10057:0.39047919 11453:0.38937806 
32 1061:0.49578194 9466:0.39787879 12563:0.66693117 13307:0.38871011 
32 443:0.34701394 729:0.28572027 3738:0.27476421 4993:0.24561221 5851:0.36245563 9334:0.34701394 9782:0.32755971 12107:0.32061619 14598:0.17606917 14630:0.29421845 15531:0.16489976 17322:0.23555229 
32 1585:0.3832688 2877:0.36827527 3760:0.17631035 6976:0.25701813 9219:0.29060692 11056:0.3005504 13864:0.3314377 13952:0.34813439 14691:0.3005504 16937:0.3523815 
32 4912:0.66580789 15532:0.74612322 
32 4780:1 
32 5282:0.3828782 6224:0.72785625 8467:0.34020048 17234:0.45595307 
32 5622:0.23432052 6285:0.27125556 9897:0.36261756 11149:0.33755099 14458:0.25043175 14552:0.34716897 14914:0.34716897 15456:0.22997914 16471:0.31488615 17325:0.22303252 17402:0.34716897 
32 243:0.37770881 2289:0.30342339 3762:0.42847663 4967:0.35020017 6457:0.25783848 7250:0.37770881 13982:0.20583682 14503:0.23894439 15525:0.2484061 16093:0.23180901 16638:0.18705365 
32 562:0.15663147 3009:0.21011411 3997:0.31545071 4978:0.22918455 5405:0.23308847 6876:0.15581638 7406:0.31545071 7516:0.26950198 7577:0.31545071 9508:0.30201157 12312:0.30201157 13517:0.2790372 15670:0.15676928 15822:0.30201157 17065:0.14000411 17072:0.18262764 
32 2321:0.3499209 11697:0.43099913 13453:0.57349737 13825:0.60240839 
32 1151:0.30991405 2321:0.21930122 4977:0.214466 5362:0.29505042 8602:0.37753931 9058:0.26514922 9104:0.34441564 10960:0.37753931 11697:0.27011429 12136:0.30034745 13651:0.29264552 
32 1704:0.39780951 2828:0.31703354 5035:0.41077877 5256:0.37953036 9009:0.24922683 11913:0.28047524 12489:0.31008413 12909:0.37258095 16700:0.2295773 
32 2861:0.37591262 11149:0.2047939 11680:0.42125835 13808:0.36559624 14598:0.21373956 15019:0.31182141 15417:0.29709865 16600:0.28432689 16601:0.44000383 
32 5282:0.23068801 6130:0.30286602 6517:0.43854079 6646:0.41985764 6876:0.21661654 8669:0.27215579 9137:0.26742566 9437:0.28105772 13674:0.36438061 14805:0.2866742 
32 461:0.30192868 4977:0.24312919 6903:0.40976314 9219:0.29327763 9718:0.36035804 12922:0.4279971 13303:0.36035804 15456:0.27144411 15525:0.28147898 
32 1371:0.33641772 3607:0.46560315 4977:0.33843722 5984:0.25001061 5991:0.32264817 9121:0.35214979 13453:0.28359088 16753:0.33843722 17065:0.26441806 
32 252:0.35058632 5407:0.23589448 6152:0.14334926 6905:0.32505302 8171:0.35058632 9546:0.31683313 9738:0.35058632 11809:0.22123233 11815:0.23508485 15307:0.35058632 15455:0.18870902 15535:0.22850242 16971:0.18462379 
32 2167:1 
32 1680:0.32029497 3294:0.35893163 5542:0.24890204 10264:0.19349754 11033:0.37490365 13854:0.2415863 15918:0.30775049 16065:0.19349754 16203:0.37490365 16820:0.27701861 17320:0.34759931 
32 1102:0.37036632 5616:0.3793045 9137:0.34951281 11225:0.51797122 15592:0.57315225 
10.17661197023581 875:0.25943316 1589:0.21111163 4052:0.23862879 4708:0.3229487 5129:0.23105689 6276:0.16567923 8661:0.16360269 8767:0.2719111 10270:0.3229487 10345:0.29185636 11077:0.15897489 13136:0.16806745 13345:0.18666146 15125:0.28566968 15890:0.3229487 17369:0.28566968 
32 1102:0.25821516 1135:0.25408204 3762:0.22665238 4109:0.38257125 6116:0.17045725 7230:0.19035238 8066:0.28879115 8453:0.3995952 9401:0.36112361 9466:0.2383911 10993:0.32801926 15271:0.26044504 
32 5285:0.4020466 6614:0.54191226 7214:0.45789561 8906:0.57881019 
32 6128:0.50911925 11881:0.50911925 12233:0.53935656 17030:0.4366803 
20.04872752844189 6199:0.32286106 7084:0.51120215 14290:0.72788789 15624:0.32343828 
32 6051:0.65029289 6735:0.60210583 9205:0.46323615 
32 6152:0.49618472 11697:0.86821698 
32 245:0.30567169 1447:0.37216196 5984:0.17655417 6977:0.25445779 7993:0.36534747 11077:0.20710776 12113:0.28509952 15647:0.30567169 15973:0.32120583 16355:0.4028037 16750:0.2358534 
12.86174458070685 82:0.46185052 6116:0.28174487 13419:0.66048172 14160:0.52065135 
32 1388:0.29549431 2982:0.23703356 3553:0.36783851 5885:0.29858792 5984:0.15435965 6116:0.15691064 6142:0.20201445 6876:0.18169325 10503:0.17575777 10729:0.39890788 11741:0.34104872 13895:0.30970669 15624:0.16344969 16719:0.23270028 17065:0.16325499 
32 2129:0.6957255 4590:0.49658852 9205:0.33647524 16971:0.39515856 
23.97405712775701 82:0.40272394 5129:0.41205216 10697:0.27999328 11697:0.41205216 12136:0.45817204 16283:0.45817204 
32 466:0.26520294 4977:0.24959357 6207:0.37537691 9466:0.26212405 10316:0.32867519 10918:0.27393951 13306:0.27205492 13467:0.30467455 13737:0.25877375 14706:0.2765783 16675:0.30224419 17325:0.27024425 
32 1071:0.30181172 4455:0.40861369 5130:0.44344697 6876:0.23624578 9185:0.29750161 9863:0.40269464 11778:0.31753474 14706:0.3010672 15531:0.21759435 
32 3272:0.3088797 3461:0.27914188 3996:0.3088797 4002:0.28638391 4583:0.27914188 4632:0.27914188 5379:0.24348688 5641:0.3088797 6529:0.28638391 8137:0.3088797 11584:0.27322471 13711:0.23942477 17285:0.17122925 
32 3370:0.32229312 5282:0.23810969 8916:0.19159156 9137:0.27602927 10264:0.2336242 10646:0.43336528 14242:0.24306268 14970:0.4526495 15624:0.20113561 16065:0.2336242 16550:0.35374972 
32 3029:0.35216872 9009:0.32171843 10972:0.55385627 11077:0.27264156 15634:0.47318125 15659:0.40924781 
32 4877:0.36668728 5393:0.30158387 5407:0.32547178 6925:0.24081731 9121:0.28591446 9397:0.48371609 10020:0.34958609 10710:0.34279937 14598:0.23497356 
18.92455978482125 6609:0.50575032 10480:0.69233833 13986:0.51466907 
11.45099159611769 3354:0.83920236 10057:0.54381927 
32 3213:0.34253988 7230:0.26869716 8386:0.4016188 10163:0.48981238 13799:0.56405966 17103:0.30181309 
32 11056:0.78026712 16753:0.62544642 
32 60:0.47399211 6051:0.2983679 6195:0.36740987 6942:0.36740987 8124:0.47399211 11077:0.23332759 13514:0.37042917 
32 485:0.28035815 6493:0.35691241 11669:0.30151458 12672:0.43907262 13670:0.48584835 15185:0.30583115 16640:0.32152794 17313:0.27812858 
32 5616:0.20129104 5888:0.30416305 6116:0.25949659 6667:0.21269001 8916:0.12874216 9137:0.18548105 9706:0.30416305 10239:0.21091405 10503:0.14533285 10724:0.29120479 11248:0.30416305 11342:0.30416305 13645:0.30416305 15157:0.30416305 15670:0.15115966 16631:0.16884529 17322:0.19766917 
26.63267117959484 1164:0.22299354 5282:0.22126018 6120:0.28400923 6276:0.21578574 6336:0.42061837 8788:0.26676438 9992:0.33789376 11027:0.34948899 12053:0.34143126 15282:0.2472861 16531:0.33461854 
32 5405:0.27335893 7181:0.36995081 9121:0.21867018 9256:0.36995081 11408:0.29719118 12124:0.36995081 12814:0.36995081 13573:0.28243987 15332:0.3541898 16065:0.19094125 
32 2376:0.65668191 6234:0.59345894 10230:0.46537658 
32 459:0.51577136 4303:0.44989899 5032:0.55294258 6116:0.32108079 11149:0.35033189 
32 7161:0.53182674 9190:0.44527888 14755:0.49109931 15897:0.52698056 
32 3213:0.21758406 4731:0.35829519 5791:0.18826969 6405:0.21942085 7230:0.17067858 7722:0.25894325 9190:0.23865178 9784:0.35829519 11705:0.26802222 12207:0.35829519 12790:0.30167156 13453:0.17054987 15015:0.20510954 16471:0.31113273 
32 1986:0.36034785 3403:0.33410361 5090:0.36034785 6199:0.15983545 8661:0.18254873 8794:0.34499595 10766:0.17799325 10993:0.29580194 11434:0.32565485 11515:0.25909808 15500:0.28947687 17135:0.27316638 
32 6199:0.28350871 6758:0.59261749 7086:0.57763148 7556:0.48452986 
32 466:0.42501349 7281:0.67414537 7462:0.47216214 17103:0.37676844 
32 2918:0.27371531 3995:0.34072747 4157:0.30792346 11256:0.28310818 11825:0.20103342 12263:0.22408475 12876:0.18167665 14152:0.68145495 15185:0.21448066 
3.533025365760574 267:0.24705147 4754:0.36843237 4977:0.20929269 6631:0.24305702 6798:0.36843237 6987:0.36843237 8359:0.31993555 8916:0.15594524 9466:0.21979993 15441:0.25246192 15519:0.31993555 16756:0.24705147 17065:0.16351855 
32 3213:0.39204281 4748:0.51860813 5282:0.33959588 6521:0.34034541 12485:0.45339379 15567:0.37499568 
32 1283:0.6384588 10440:0.45287546 14980:0.62231356 
32 1164:0.28849387 1478:0.54416742 5543:0.41853737 6754:0.3451216 10710:0.38563994 14242:0.29220575 16679:0.30375697 
32 3936:0.47097312 6276:0.58868306 9205:0.25727137 15288:0.28717608 15537:0.53195668 
32 6754:0.43427094 8958:0.50019455 15722:0.68473285 17065:0.30389981 
30.09573928409012 1835:0.52180415 12510:0.37181496 14182:0.46837513 16975:0.60835747 
30.99521503504935 6343:0.52073346 7083:0.52928521 11825:0.35962191 15794:0.56512468 
32 11149:0.58226273 15028:0.81300069 
9.809496148244485 466:0.31686881 10820:0.52497457 15567:0.30494193 15715:0.52497457 16975:0.40377551 17072:0.30392979 
32 690:0.29055016 3438:0.47844829 4385:0.40283612 12488:0.56560155 13313:0.31868286 16756:0.3208224 
10.68302992808408 287:0.44623668 7088:0.39604473 10389:0.29698369 14145:0.57112019 14621:0.47921166 
32 4422:0.40737421 5991:0.24940795 6116:0.19645276 8894:0.284515 9581:0.44091512 11077:0.22670333 15471:0.4605353 16612:0.44091512 
32 1494:0.43443166 5425:0.46384831 13091:0.3545408 13094:0.34983026 14760:0.3126488 17399:0.50028414 
32 5622:0.21637199 5901:0.33484172 7289:0.33484172 7432:0.33484172 8330:0.32057646 8916:0.14172743 8940:0.30260437 10053:0.33484172 12250:0.29076645 12510:0.15740165 15871:0.33484172 16700:0.17916476 17313:0.19168338 
32 4956:0.53787307 5111:0.41763551 7331:0.49695645 12793:0.53787307 
6.501644896419085 395:0.41449888 2321:0.24076992 3085:0.34440435 4370:0.33297781 7383:0.36665192 14153:0.34899303 15300:0.2693741 16215:0.31421627 16223:0.33646384 
32 1071:0.23786338 2147:0.30942331 5180:0.30280698 5205:0.34065092 5242:0.36088266 6632:0.2683879 8332:0.28991831 10264:0.19454933 11460:0.29987186 11954:0.34948874 16622:0.32203598 
32 1836:1 
22.33681949333253 48:0.49677216 6557:0.27969181 8179:0.40778978 9104:0.22659376 13175:0.43942812 14242:0.26675556 17256:0.43942812 
32 3771:0.41566252 6876:0.23643826 8856:0.38452809 9104:0.21833674 11101:0.27576878 13453:0.2278487 13682:0.32800031 13777:0.28242117 16700:0.25612335 16753:0.27191453 17079:0.34776829 
6.044710807936824 2184:0.29381482 2211:0.44537241 7528:0.42639821 8244:0.35431136 10667:0.39396161 12510:0.20935967 13136:0.23177861 14245:0.39396161 
32 2321:0.24256616 3483:0.29458789 5145:0.36938728 5558:0.28001482 6152:0.17074651 12488:0.24682942 14048:0.3427918 14050:0.338974 14211:0.23868069 15087:0.35159665 16121:0.36938728 
6.741812776472448 2033:0.48343096 2339:0.41606768 4445:0.61470698 13900:0.4640232 
31.93270042944648 4049:0.38974667 4734:0.41758829 6631:0.39564012 8729:0.59972194 13156:0.39688796 
32 3129:0.44487197 6516:0.42445688 11073:0.46738229 11077:0.26009777 16490:0.50586393 16700:0.28271879 
6.235321362017388 134:0.35358097 651:0.31276596 1147:0.16321843 1164:0.18745323 2033:0.26622404 6152:0.14457373 6626:0.30207816 9664:0.23253805 10710:0.50115072 10974:0.35358097 14017:0.31953947 
32 1328:0.36822532 5150:0.43652636 5984:0.22803165 6116:0.23180017 6876:0.2684109 11256:0.45150629 11988:0.40152059 14524:0.36194472 
32 1071:0.27867729 4067:0.37182734 5399:0.35132553 6547:0.44161919 7238:0.40945594 10061:0.44161919 10196:0.3208498 
32 1597:0.59607755 14859:0.46209031 15262:0.65663087 
32 1733:0.50016734 6116:0.49947079 6199:0.25967854 11149:0.27248678 12953:0.44380296 13453:0.27867326 16638:0.28993053 
32 478:0.3815767 1504:0.21202136 3760:0.16569131 6152:0.16296347 6521:0.21011753 9381:0.24304286 10077:0.39855639 11077:0.19619356 11443:0.30008767 13753:0.39855639 14458:0.2752519 14814:0.26053639 16004:0.24966882 
4.516136751649873 8916:0.26237056 13005:0.42475536 15531:0.28201092 15991:0.42475536 16971:0.32643256 17142:0.61987021 
32 1241:0.40486401 3396:0.37023558 6152:0.2060714 7144:0.36058082 9104:0.22988356 9140:0.32476549 14106:0.50398456 17144:0.33794568 
32 5640:0.91384297 15624:0.40606775 
32 173:0.34674814 1655:0.29194937 2069:0.33197564 4133:0.30672187 11913:0.22666933 12519:0.34674814 13453:0.16505344 13479:0.29194937 14687:0.32149438 15185:0.21827055 15684:0.18686865 16607:0.34674814 
32 123:0.31769308 1027:0.32375277 1194:0.35649395 2608:0.32375277 3800:0.40301532 5306:0.30768306 7172:0.35649395 8179:0.33082677 8916:0.17058306 10766:0.19906879 
2.200227810023616 218:0.38802927 1147:0.17912029 5574:0.35976899 5991:0.21014151 6526:0.24080864 8335:0.38802927 10558:0.27761944 10632:0.20257844 11101:0.22354937 13762:0.35976899 13982:0.21146107 15015:0.2221311 15455:0.20886332 
32 818:0.32764621 1682:0.37888438 5865:0.28112583 8809:0.41924808 10710:0.29711225 12485:0.29444166 13897:0.37888438 13972:0.41924808 
27.12868548925136 819:0.45487637 3370:0.36614387 4829:0.51423635 6514:0.37997241 16719:0.3253138 16820:0.37997241 
23.61800996981525 6156:0.76274506 6563:0.64669929 
32 2944:0.46282945 6051:0.29134125 10369:0.46282945 11358:0.33278462 14621:0.37180302 15415:0.23145146 15479:0.42912145 
32 766:0.32307803 3760:0.1343128 5715:0.19871323 6426:0.17089614 6705:0.29954817 6735:0.37660167 6977:0.19539875 10309:0.23003632 11367:0.28578408 12336:0.32986295 14237:0.23003632 16320:0.22690058 17001:0.30931394 17100:0.30931394 
32 2213:0.52979548 6047:0.69394687 6360:0.22484546 9021:0.22358819 10904:0.28829791 11077:0.17080131 15531:0.15785611 
32 2976:0.41884784 5430:0.26832161 9362:0.41884784 11172:0.4437238 15531:0.21085593 16410:0.4437238 16756:0.31077804 17065:0.20569793 
32 1835:0.41813831 3760:0.26349935 6134:0.28652506 8916:0.26827729 16809:0.63382531 16865:0.44712929 
32 8101:0.55374783 8921:0.43275899 11104:0.35585483 13136:0.28817884 13463:0.39815695 16026:0.37131433 
32 6120:0.41669209 6526:0.38298224 8850:0.36345793 8894:0.38125301 11577:0.34594878 13307:0.35967964 15456:0.39139083 
32 472:0.19880681 3370:0.23014466 3855:0.30945961 4521:0.29968924 10713:0.18807062 12068:0.19175488 13306:0.20013884 13467:0.22413567 15688:0.32323018 15774:0.30945961 17040:0.59937847 
32 9081:0.88578945 14598:0.46408734 
32 201:0.32694879 472:0.21004242 1867:0.24201213 6405:0.20913397 8241:0.20913397 8450:0.26470818 9205:0.15313064 9513:0.31662624 9559:0.29654621 13915:0.3414976 14611:0.30861944 14706:0.21496544 15455:0.18381686 16971:0.35967509 
32 8467:0.25126965 8916:0.22754383 9230:0.53758944 11136:0.33517244 17208:0.44129582 17458:0.53758944 
32 160:0.24228907 1135:0.24352739 5442:0.32246865 6853:0.36667912 7466:0.29033502 9124:0.33258207 10634:0.29931479 10697:0.18619796 11149:0.17826031 11817:0.38299589 13136:0.19931692 14196:0.27538252 15531:0.17424458 
32 1709:0.35491205 1867:0.32701564 4841:0.31269012 5807:0.31619657 11006:0.46144404 15699:0.37878968 17441:0.46144404 
32 267:0.2229456 472:0.20449778 861:0.33248284 1423:0.22782813 2321:0.19312928 2538:0.25772048 3098:0.24716042 5676:0.2229456 6975:0.23150886 7658:0.30826802 8205:0.30826802 9029:0.33248284 10050:0.20929084 11611:0.30826802 16673:0.19616898 
32 1013:1 
11.00029455848203 5287:0.33805281 9599:0.50065704 10624:0.43475547 10632:0.26137803 14237:0.3564752 14268:0.50065704 
32 1548:0.28635123 2036:0.35645697 2982:0.22969935 3445:0.35645697 6199:0.31621924 7323:0.35645697 8916:0.15087645 10264:0.18397673 12868:0.26498226 14182:0.2110784 14189:0.29260801 14403:0.35645697 
32 7230:0.36226137 14184:0.53893137 17090:0.76047333 
32 2913:0.65730932 5059:0.55730478 5116:0.50730251 
32 1071:0.24487746 6199:0.17212595 6371:0.33697671 7230:0.18485585 8271:0.38805668 8661:0.19658576 9866:0.3597944 10367:0.34326203 10694:0.22578974 11149:0.18061579 13091:0.27500757 13491:0.27902135 13497:0.29846738 
32 1842:0.40757737 2321:0.32926584 5696:0.46013243 7941:0.46013243 13453:0.26982254 16596:0.31822323 17107:0.35770206 
32 1147:0.4683766 2273:0.33364916 5594:0.36477676 5996:0.5073234 8661:0.25700512 10766:0.2505916 15973:0.38731732 
32 845:0.38353143 1276:0.36719185 3374:0.33304712 3486:0.30810085 4326:0.30233412 10020:0.27718171 10713:0.22315674 13380:0.38353143 15873:0.38353143 
32 5984:0.24075575 6043:0.57372012 6426:0.3034764 13345:0.33160509 15271:0.37393483 15523:0.42392533 16971:0.30212926 
32 2122:0.41564391 11197:0.47864849 12807:0.47864849 13318:0.47864849 13514:0.37406817 
32 1578:0.56903253 7409:0.43136252 10389:0.56658393 14598:0.27641751 16700:0.30447394 
32 738:0.43916846 1485:0.56932351 5715:0.30536545 5718:0.30275661 9009:0.28838948 9864:0.39136928 10042:0.24850308 
32 6143:0.34326015 6152:0.15866944 7049:0.33153031 8080:0.31173439 9121:0.22937093 10264:0.20028507 10313:0.23973698 11494:0.38805456 15567:0.22540921 15650:0.30871274 15784:0.38805456 16673:0.22895698 
32 1936:0.41366182 2874:0.45797592 8467:0.27154747 10389:0.28923684 13005:0.39810218 15019:0.41172376 15413:0.36571051 
32 3021:0.57467911 4808:0.53593586 5791:0.41997417 16753:0.45402464 
32 278:0.26032762 853:0.24344849 2201:0.24744938 4271:0.35330418 7528:0.35330418 9185:0.22954274 12850:0.65285585 13575:0.28839702 
32 1115:0.22483644 1470:0.22483644 1555:0.22483644 2503:0.22483644 4025:0.44967289 8645:0.22483644 9260:0.22483644 9605:0.22483644 9838:0.22483644 11250:0.22483644 11348:0.22483644 12907:0.20319 13063:0.22483644 13508:0.22483644 15014:0.22483644 16338:0.22483644 17107:0.14187973 17421:0.16928758 
32 10632:0.46279654 14091:0.88646453 
32 267:0.32609748 9847:0.43949445 12924:0.35525121 13539:0.48631512 15624:0.21609499 15874:0.46559665 16750:0.27262052 
32 601:0.39831379 1504:0.42378461 1998:0.28098872 2737:0.39831379 5282:0.20952718 6569:0.39831379 9254:0.22984645 14264:0.35996557 15670:0.19794968 
32 4303:0.29675514 6152:0.20300318 6503:0.40301145 8344:0.35881117 9970:0.33891669 10229:0.43112883 12876:0.2647246 13136:0.25837614 15455:0.26723912 17103:0.2656534 
32 2296:0.3774729 2464:0.44832442 4808:0.3006229 7391:0.44832442 10130:0.44832442 12773:0.40516136 
32 3399:0.503251 3785:0.37410571 5300:0.38149598 6959:0.313034 8598:0.46659909 8649:0.38149598 
32 7074:0.76105265 7881:0.5304164 15531:0.37343982 
32 157:0.39892503 1037:0.41667671 2201:0.2794016 9418:0.35598334 9762:0.29667996 12520:0.31169443 15043:0.41667671 15455:0.22428328 17285:0.23098714 
32 977:0.63043963 5128:0.43716216 7088:0.41855477 8916:0.26684425 9140:0.40625259 
32 2201:0.29979754 2601:0.39548407 2618:0.41453159 6145:0.28972522 8467:0.20897181 10632:0.23341413 15136:0.44709354 17014:0.44709354 
32 13982:1 
32 333:0.25620878 350:0.28247587 1467:0.2950457 6545:0.2950457 8235:0.26663976 9822:0.2950457 9837:0.2950457 11354:0.2950457 11376:0.2950457 11567:0.2950457 14741:0.2950457 14763:0.2950457 
32 1412:0.48364648 2539:0.42781758 10042:0.24208019 13723:0.44842236 14820:0.35529488 15624:0.21490917 16715:0.38852589 
4.735560343003507 1526:0.71854733 3286:0.40634587 13307:0.41879376 16971:0.37839735 
32 550:0.33411791 1097:0.31988349 3605:0.23465399 4759:0.31988349 6199:0.14820093 8071:0.33411791 12380:0.29013791 12510:0.31412281 12902:0.33411791 15624:0.14846589 16506:0.29554959 16920:0.30195024 
32 723:0.27434674 1371:0.22778234 3799:0.29004494 4094:0.38620251 5984:0.16927765 6991:0.40338804 8916:0.17074082 11460:0.32091114 13982:0.21983102 15453:0.40338804 16940:0.32405219 
32 466:0.37676795 1496:0.62421288 2965:0.52556461 16320:0.43839027 
32 993:0.43072828 3731:0.43072828 4203:0.43072828 12440:0.36798816 13144:0.33387438 13307:0.25104305 15415:0.21539833 15907:0.29514912 
32 446:0.31123192 1092:0.33567956 2273:0.22076491 3377:0.33567956 5282:0.17657935 6062:0.22144979 6876:0.16580839 8026:0.33567956 8740:0.33567956 11910:0.33567956 12238:0.32137861 12510:0.1577955 13739:0.23472834 
32 2264:0.49102393 4999:0.35390514 6370:0.37019617 9997:0.40191496 10042:0.2957935 10202:0.4975661 
32 3213:0.41660965 6976:0.4157566 11136:0.42772122 12215:0.68603018 
32 7734:0.65919799 12510:0.30987433 13283:0.45170405 14014:0.51516926 
32 725:0.31132847 4265:0.41045106 4303:0.28716191 6576:0.36951548 6925:0.23918178 8856:0.38594273 13514:0.37546114 15634:0.41045106 
32 4069:0.83093045 6134:0.37562779 6876:0.41043679 
32 2697:0.54257126 4100:0.35159661 5865:0.3638199 6010:0.5194561 13681:0.4240244 
32 6152:0.2085317 10436:0.47285809 10639:0.35082654 12510:0.23974045 14674:0.48827407 15215:0.48827407 15684:0.27484883 
32 5751:0.52159178 10474:0.60065627 12112:0.47349153 15185:0.37810029 
32 5150:0.27477677 5516:0.27765348 6928:0.22936004 9921:0.31713729 13596:0.26731427 13667:0.68409761 13861:0.28799269 16700:0.18302108 17313:0.19580914 
32 1947:0.62420846 4049:0.42371132 9968:0.49090331 16932:0.43571373 
32 1066:0.31639174 3846:0.4524645 4678:0.3809587 8669:0.28079676 12810:0.38655826 13607:0.41951138 15300:0.29404716 15455:0.24354667 
32 1232:0.70710678 10207:0.70710678 
32 13313:0.53305439 14629:0.52315024 15139:0.66495627 
32 5779:0.46643877 6887:0.44656709 10454:0.6045226 13961:0.46643877 
2.83641312529773 3605:0.28361947 5249:0.40383864 7083:0.35068128 7230:0.19237379 10632:0.21083204 13739:0.28238947 14213:0.28003153 15425:0.3866339 16683:0.30406487 16973:0.32441416 17103:0.21608315 
32 4978:0.44838407 5708:0.40714277 6876:0.30484421 8594:0.46784463 9205:0.27673925 11111:0.37634784 13136:0.32117845 
32 1494:0.26467092 2366:0.30479055 2594:0.30479055 3402:0.28259257 6904:0.30479055 7669:0.30479055 11308:0.30479055 12539:0.26039459 14859:0.18625665 15862:0.43613092 16395:0.30479055 
32 4241:0.90592817 8467:0.42343141 
32 4276:0.27560953 5179:0.26669652 6199:0.17701288 6811:0.27672777 8355:0.32759161 9400:0.38207248 10042:0.19974914 10264:0.20597261 12894:0.33158811 12924:0.2915221 13535:0.38207248 17292:0.26165869 
32 5558:0.2916499 5780:0.43494281 6370:0.27246247 8576:0.43494281 9725:0.32138192 10632:0.2270706 13658:0.41641295 15803:0.36620608 
32 5362:0.54200993 15411:0.43040843 15921:0.62677087 16065:0.35795544 
32 9205:0.41300066 9697:0.78687684 10389:0.45853604 
32 2874:0.62143919 5718:0.48073476 5791:0.41423984 6735:0.4594701 
32 4480:0.47876024 9002:0.51117851 11744:0.42735919 13306:0.34137587 14598:0.26781926 15417:0.37226959 
32 2497:0.49298872 5984:0.20687765 6391:0.4211797 7329:0.49298872 8916:0.20866582 12119:0.43608142 15670:0.2450002 
32 178:0.32632188 520:0.34203838 690:0.22402769 3017:0.20260065 4638:0.35318941 8467:0.17242686 10230:0.26143581 10244:0.28595342 10697:0.17934794 12336:0.37665324 12876:0.19670145 16596:0.2070998 16638:0.18269416 17145:0.30282707 
32 5908:0.65871735 15976:0.75239049 
32 2538:0.35989629 2926:0.37298349 5181:0.32466712 6062:0.30630075 6134:0.2098895 10740:0.41070337 11057:0.38578286 11350:0.34307333 16638:0.22993588 
32 492:0.51845817 5542:0.34420924 6223:0.51845817 6405:0.31750506 6735:0.30217501 11149:0.24130942 11825:0.30589673 
32 1147:0.19606775 2390:0.42474264 3017:0.23326581 6199:0.18839833 7230:0.20233169 9480:0.42474264 10783:0.42474264 16004:0.26607274 16301:0.26181919 16505:0.31384495 17103:0.22726831 
10.37624327790944 5282:0.36198114 7789:0.59755192 8847:0.508464 8916:0.29126296 9466:0.41052602 
32 4697:0.67638082 6526:0.4384366 6811:0.48988967 12510:0.33210005 
32 109:0.53772982 6199:0.24912839 8681:0.52075241 17065:0.24927649 17361:0.56165813 
32 6637:0.79036178 10884:0.6126404 
27.56896465985654 2257:0.53447089 4396:0.53447089 5738:0.42519273 9466:0.31885544 15862:0.38239257 
32 6142:0.23200196 7707:0.42244134 8450:0.32745084 9578:0.37367755 10503:0.20184767 11182:0.42244134 14052:0.35100368 17053:0.42244134 
32 9594:0.9049966 12510:0.42541879 
32 4670:0.37555657 4771:0.37555657 5772:0.37555657 6199:0.16658141 6426:0.39731064 8741:0.37555657 8788:0.23818531 9381:0.22901738 17147:0.37555657 
32 6607:0.36633569 8077:0.55355559 11432:0.44037536 14691:0.39229315 15350:0.45994564 
32 2133:0.4233014 2235:0.48133605 6152:0.20556861 8467:0.46997594 11727:0.50275491 15455:0.27061633 
32 555:0.27547041 1524:0.2319361 2218:0.27547041 6069:0.27547041 6406:0.26373455 8290:0.27547041 9650:0.25540782 10778:0.26373455 10793:0.27547041 13705:0.27547041 13727:0.27547041 15022:0.26373455 15548:0.27547041 17329:0.25540782 
32 723:0.28346696 8467:0.19481168 9205:0.18689604 10389:0.20750226 11184:0.41679804 11335:0.34631471 14706:0.26236546 15415:0.2084321 15455:0.2243486 16375:0.41679804 16433:0.41679804 
32 151:0.27667136 1364:0.32860246 3056:0.24741681 3084:0.23510193 5422:0.2969658 5991:0.17795827 6795:0.32860246 6807:0.32860246 9021:0.21175002 9992:0.26397497 10313:0.20300795 11191:0.23287362 15019:0.23287362 16933:0.31460302 
32 4659:0.50158929 6152:0.23185589 12782:0.49240491 13307:0.33049316 15531:0.25797808 17084:0.5257471 
32 2256:0.30110029 3460:0.41443587 4937:0.39677967 6876:0.20470995 8724:0.39677967 10389:0.20632626 12653:0.32970012 15675:0.37453548 16753:0.23542556 17065:0.18393594 
32 1936:0.37838307 8096:0.4614742 9254:0.3066586 9970:0.36277163 11136:0.33132963 12510:0.2498115 14242:0.28536383 16976:0.40571842 
32 15160:1 
32 2748:0.67048962 15326:0.74191891 
32 465:0.63020411 7214:0.52764662 11358:0.56958917 
32 6609:0.64832408 9219:0.60815246 10264:0.4580682 
32 562:0.26639873 1286:0.49744365 2563:0.49744365 4554:0.41265428 10866:0.51366116 
32 1399:0.2780002 2916:0.33018073 3053:0.30613357 3389:0.23088321 3760:0.13726559 4266:0.33018073 5256:0.29206689 5353:0.31611404 8651:0.30613357 11075:0.33018073 11158:0.24860514 12480:0.29839212 
32 240:0.31815882 1803:0.27730025 2926:0.31135569 3451:0.38758314 5407:0.26078805 8739:0.30289977 9521:0.37107094 12485:0.27220309 12924:0.2831279 15624:0.17222326 15897:0.30552804 
32 461:0.58786781 3762:0.47266796 6876:0.41162121 16093:0.51143369 
32 267:0.24641253 3872:0.27153287 4841:0.24901656 5430:0.21274929 5766:0.25923681 8363:0.36747951 8364:0.36747951 11077:0.18089564 13854:0.23680222 15531:0.16718537 16589:0.36747951 16756:0.24641253 16792:0.2245657 17292:0.24094316 
32 1164:0.18186936 1737:0.34304848 1941:0.28503669 2115:0.31806416 4566:0.28883438 6142:0.18839993 6622:0.28883438 8921:0.26809552 9466:0.20465637 10503:0.16391279 12112:0.2704218 12706:0.34304848 13601:0.30344927 16673:0.20240284 
32 725:0.25128894 3152:0.38778006 12620:0.35953793 12703:0.35953793 14208:0.37125947 14561:0.37125947 16215:0.29396173 16841:0.35044599 17103:0.20749064 
3.770708596595151 157:0.4877284 955:0.37213778 5282:0.26797914 9294:0.3330156 10389:0.25361979 13489:0.46038546 13777:0.300571 16700:0.27258315 
32 562:0.17220761 772:0.26883422 6925:0.17266408 11131:0.34682057 11978:0.34682057 12913:0.34682057 13135:0.33204498 13274:0.34682057 13900:0.25065043 15823:0.31342993 16773:0.34029982 
32 1283:0.44894014 3548:0.48420492 4328:0.48420492 7160:0.46357634 13739:0.33858665 
32 1027:0.33856127 1071:0.26594938 1164:0.22343407 1351:0.27632922 5181:0.29470396 5195:0.27550149 14209:0.29470396 14598:0.20472637 15840:0.4214493 16208:0.38087368 17083:0.27233711 
32 5923:0.49566259 10172:0.53459748 11815:0.3584731 16645:0.45011169 16982:0.37070289 
32 4176:0.81460752 14702:0.58001257 
32 5718:0.5206397 7046:0.85377649 
32 1660:0.55605645 2563:0.5155587 6876:0.27466321 7415:0.39226759 15947:0.4423649 
32 573:0.68941685 8916:0.29180735 9209:0.50645728 11669:0.42784798 
32 6634:0.49235682 7230:0.27452857 8059:0.50044256 11785:0.42583249 13843:0.50044256 
32 5708:0.36839255 6735:0.32546573 8661:0.28288983 13737:0.32888461 15684:0.30094196 16737:0.44019656 16910:0.534629 
32 725:0.31943369 2201:0.33053884 3738:0.37367852 5622:0.3185329 9137:0.30059788 9190:0.3283345 10729:0.26728726 13717:0.35267787 14598:0.23945355 15413:0.31029431 
32 843:0.612771 1504:0.32597781 1618:0.46451904 9466:0.36556783 11815:0.41089218 
27.58199442047926 622:0.57099615 3634:0.38021 5791:0.31338669 11908:0.43812904 14805:0.38986991 16638:0.29535898 
32 5623:0.43111892 6116:0.192088 6811:0.31225117 9356:0.3655275 10640:0.45030318 11385:0.41750747 13515:0.32062251 14211:0.25737773 
32 4683:0.58688426 13307:0.34205605 16211:0.58688426 16971:0.30906168 17103:0.31402592 
32 1936:0.47425061 2447:0.4481689 6886:0.4765454 14408:0.58918204 
32 160:0.29003861 288:0.3475533 307:0.45847547 4834:0.33877034 5046:0.4143351 5865:0.30742966 6426:0.2425163 8360:0.3809442 
32 3821:0.35740814 4067:0.3009247 5793:0.35740814 5815:0.35740814 9121:0.21125647 10961:0.35740814 12740:0.331378 13466:0.24398047 14287:0.29696804 16660:0.31036245 
32 1371:0.23766435 3762:0.23873003 4409:0.38036684 4463:0.42088847 7390:0.29431179 8385:0.29559372 8669:0.26120087 10389:0.20953867 11149:0.19589691 14524:0.28034365 15624:0.18702254 15733:0.28840656 16638:0.20843761 
32 982:0.27691344 1173:0.25697597 2871:0.22997168 4098:0.29971294 5376:0.26357658 5883:0.28291049 13005:0.21451197 13453:0.1490129 14598:0.15206942 14992:0.56582098 15705:0.23570664 17127:0.3130498 
32 1485:0.23163385 3406:0.40399263 5350:0.36509767 6925:0.20112711 7893:0.40399263 8856:0.32453787 9741:0.37456973 11577:0.22647184 14037:0.33162902 16773:0.19819848 
32 6554:0.61370143 11136:0.43255776 15624:0.30828576 17086:0.58414401 
32 1186:0.26089808 2493:0.24627166 2871:0.20018878 3021:0.19593909 4116:0.26089808 7371:0.27250772 8451:0.27250772 8457:0.27250772 10020:0.19694385 11289:0.24627166 11870:0.52179616 12357:0.27250772 16176:0.23663748 
21.98900219964193 1618:0.38708935 5389:0.48887516 6140:0.5106295 11913:0.3337986 13028:0.48887516 
16.20287006246669 1061:0.43886153 3697:0.59036122 6199:0.2618599 10917:0.52221389 15567:0.34292306 
32 1879:0.49370919 1937:0.42715387 7567:0.54965704 15670:0.30226345 15684:0.32777699 17065:0.26993887 
32 2318:0.4138425 2859:0.28145688 5643:0.32922807 6116:0.17653479 6658:0.34385897 8661:0.20964861 9717:0.4138425 14476:0.39621157 17285:0.22941598 17289:0.25862774 
9.477683830412255 4030:0.84509324 16150:0.53461894 
30.07246419691973 4303:0.23894003 4570:0.49504249 5984:0.16775273 6607:0.26455197 9937:0.26054866 13982:0.21785069 14831:0.28890604 15567:0.23220517 15917:0.24752124 16757:0.39975417 17065:0.35483975 
32 2908:0.30520745 5195:0.27461225 6142:0.23071006 7564:0.42008899 10503:0.20072369 10643:0.42008899 10815:0.42008899 14216:0.3122849 15288:0.21026768 17325:0.25838104 
32 2447:0.3733805 5411:0.45552048 5969:0.53127684 10317:0.4374365 11339:0.42365355 
32 1089:0.41568256 2177:0.31971536 2381:0.41568256 4326:0.32767854 5442:0.34998964 6898:0.32485972 7957:0.37566214 13156:0.27509316 
11.89354486963322 2977:0.39410792 6116:0.16811651 8472:0.31659722 8775:0.34223142 9381:0.24033014 13136:0.20509979 14108:0.37731774 14787:0.39410792 16640:0.26081535 17405:0.36540493 
32 11325:0.74191891 12974:0.67048962 
32 4435:0.34172987 4593:0.29030711 4977:0.24839632 5039:0.43726919 5791:0.22976734 6065:0.35494733 10389:0.21769379 11149:0.2035211 11939:0.41864021 13795:0.32122534 
13.31478747037215 3213:0.30269498 5987:0.36830566 9832:0.41967442 12008:0.40041565 12040:0.49844715 12510:0.23430893 15455:0.26829761 16638:0.24684719 
32 11339:0.60682129 14782:0.7948383 
32 160:0.41571047 8187:0.32856496 8411:0.29063763 8467:0.15357148 9575:0.2853159 9946:0.280706 10122:0.32856496 10729:0.17815855 12676:0.2853159 13679:0.30463548 14883:0.280706 15415:0.16430856 15455:0.17685565 
32 729:0.29548681 1429:0.33875641 1432:0.37484515 3286:0.21197877 3760:0.15583387 5984:0.15729991 9395:0.34754507 10385:0.35887563 10902:0.33875641 14928:0.29820414 16971:0.19739884 17026:0.26689528 
32 678:0.32930413 774:0.29129148 2476:0.32930413 7004:0.25140807 13082:0.29759992 13136:0.17137491 14871:0.29129148 15586:0.32930413 15626:0.32930413 16065:0.16996244 16445:0.25327883 16679:0.18381921 16951:0.29759992 
32 2918:0.3374752 5730:0.36479986 6199:0.18633787 6876:0.20750642 6959:0.26131046 10697:0.20423527 11273:0.42009734 15568:0.42009734 16303:0.40219994 16700:0.22478274 
32 5214:0.43509899 5718:0.34496851 7389:0.52450014 9179:0.45003692 9442:0.37204161 10697:0.27502183 
32 1326:0.25664186 1729:0.33367663 6134:0.1508408 8701:0.28975472 9432:0.18472424 11447:0.33367663 11453:0.21561912 11556:0.33367663 13330:0.25864584 14229:0.33367663 15457:0.30937487 15576:0.33367663 15670:0.16582701 
32 1989:0.2826555 3785:0.24955929 5807:0.23003937 6447:0.22588473 9104:0.30625609 9313:0.33570983 11744:0.26022185 12346:0.30338889 12497:0.32140759 12520:0.25112727 12580:0.23903035 13060:0.29695774 14792:0.27557711 
32 2788:0.42397073 4353:0.36816339 5525:0.3750304 9182:0.27099551 12336:0.43287448 13453:0.20181168 15502:0.31145607 15919:0.2553949 16932:0.28333455 
32 3017:0.35221781 7789:0.55691741 7883:0.61401381 11077:0.3157047 11149:0.29850158 
32 591:0.32424251 1123:0.32424251 1326:0.49877153 5195:0.21195739 7458:0.31042881 8572:0.23819403 9021:0.20894048 9104:0.14789744 10206:0.21893448 15517:0.32424251 16150:0.20512078 16884:0.28681414 
32 3959:0.49162788 4504:0.49162788 9895:0.41393285 11327:0.47068307 16273:0.3517401 
32 3084:0.56014459 4993:0.26526495 5369:0.3462704 5487:0.37478037 5692:0.39145763 11191:0.27741775 13596:0.30592772 15531:0.17809426 
32 7062:0.69155273 9025:0.72232598 
32 1079:0.31188089 1935:0.53781701 5216:0.4320425 5885:0.43656567 11122:0.48603793 
32 2587:0.49623864 7001:0.51832065 9254:0.29909625 14211:0.29625416 14891:0.48057121 17103:0.27733938 
32 1698:0.41351304 4978:0.35682038 5011:0.4195911 8916:0.20787878 9590:0.49112927 11259:0.49112927 
23.40521816409571 1147:0.1691115 4435:0.28630366 4999:0.21939277 5991:0.19839933 6952:0.28176986 11825:0.21614935 12008:0.29429628 13651:0.5679401 13892:0.27583617 14135:0.31812482 14598:0.17795955 17292:0.24020072 
32 6152:0.17053226 6876:0.2060097 12375:0.81791076 16215:0.31616324 16719:0.26384312 17227:0.29988057 
32 294:0.48563218 1871:0.35675361 6116:0.20715846 9118:0.39420533 11521:0.45026345 13006:0.48563218 
32 16199:1 
32 7894:0.59134923 12660:0.59134923 13798:0.5482811 
32 2260:0.26978027 6607:0.21204829 10916:0.29708179 13238:0.64083583 13240:0.32041791 14598:0.15564861 14691:0.2270734 15019:0.2270734 16259:0.32041791 16320:0.22503236 
32 6152:0.21111475 9666:0.31826853 10713:0.30041881 11127:0.51631897 16215:0.39140232 16753:0.5866031 
32 3834:0.58002572 8467:0.29998597 10830:0.64181761 16004:0.40205564 
32 2859:0.42537089 3642:0.44324155 4554:0.48105274 5533:0.62544768 
32 1208:0.47247552 11068:0.47247552 11979:0.48787902 12263:0.3351392 14380:0.45076551 
32 657:0.37097081 4952:0.32814844 9739:0.32213986 10662:0.37097081 14141:0.31693499 16361:0.37097081 16394:0.37097081 16553:0.37097081 
32 1603:0.83702557 14629:0.54716377 
32 5616:0.4388489 9137:0.40438041 10317:0.52273698 14706:0.41742458 17219:0.44316013 
32 1589:0.49625137 4313:0.43189685 5984:0.31856621 11453:0.49055149 17289:0.47442016 
32 10050:0.55389991 13306:0.544841 16273:0.62955792 
32 6152:0.21816917 6925:0.26563791 9466:0.31831907 10519:0.41699126 11089:0.53357182 12876:0.28450168 14760:0.33345168 15417:0.36027747 
32 4303:0.30188308 5032:0.37102553 5179:0.33752545 7523:0.46827622 10389:0.25144328 12442:0.39149171 13353:0.39813382 15670:0.2509992 
32 2147:0.2883984 2546:0.29580612 5022:0.3513288 5129:0.25136172 6152:0.14365285 7230:0.16736005 9102:0.3513288 9104:0.16025236 10206:0.23722365 10488:0.2645283 10503:0.16786923 13345:0.2030649 15455:0.18910867 16343:0.3513288 17406:0.30015405 
32 4366:0.42381423 4570:0.26241884 6557:0.23861516 10713:0.24659517 11809:0.26744173 13453:0.20173719 13737:0.24960808 14160:0.33408866 14538:0.42381423 15531:0.19281495 15684:0.22840091 16640:0.28047459 
31.81463487860634 3281:0.50946615 6526:0.35743109 10904:0.47855295 13095:0.53400334 13982:0.31387063 
32 2337:0.60862051 4930:0.48418168 12876:0.32451781 16285:0.53836545 
32 2599:0.72232598 10074:0.69155273 
32 370:0.31134906 1930:0.40341342 4410:0.31520137 5189:0.3384934 8467:0.19694619 10440:0.27711716 10697:0.20485146 11149:0.19611862 11809:0.26589606 12162:0.40341342 15659:0.31134906 
32 690:0.20439616 1597:0.26532173 3483:0.23743797 7233:0.29772631 8591:0.26776166 10166:0.31206557 11453:0.21749441 11853:0.32223944 12336:0.34364713 12489:0.24324854 13453:0.16021274 14052:0.27966099 16158:0.28338706 16852:0.2472564 
27.18658736369345 4961:0.34082933 5718:0.22998231 10042:0.18876982 10583:0.37713891 11486:0.37713891 14309:0.37713891 14311:0.37713891 14312:0.37713891 16975:0.29007015 
32 2371:0.50901009 6613:0.50901009 15256:0.50901009 16231:0.47193874 
30.28464230441671 77:0.5742969 853:0.39572619 8943:0.59985241 11913:0.39212363 
10.51589598745872 267:0.28513969 2908:0.30894547 3304:0.31809572 7889:0.32464598 10042:0.21284293 10310:0.36329419 15779:0.42523402 16263:0.42523402 17292:0.27881073 
32 4248:0.74901465 10917:0.66255344 
32 8000:0.40647512 9031:0.34463306 11077:0.20899547 15614:0.42456276 15718:0.42456276 16655:0.42456276 16796:0.36272071 
32 1428:0.45856784 8916:0.2271891 10852:0.53675135 11082:0.43118642 11580:0.51388414 
32 1831:0.32591572 6837:0.31562579 7217:0.34041857 9182:0.21759026 10073:0.68083713 16562:0.28285151 16660:0.29560921 
32 3760:0.52252688 6276:0.64481211 17065:0.55783779 
32 924:0.31490996 3286:0.24101139 4303:0.25473757 6493:0.31308195 8777:0.29433212 9867:0.39514486 13694:0.42618396 15670:0.2118003 15684:0.229678 16971:0.2244346 17095:0.32779235 
32 5616:0.29304465 6134:0.20017455 6876:0.21872449 6975:0.30832887 8894:0.27356344 9132:0.26835626 9507:0.44280836 10697:0.21527649 11056:0.31380892 12868:0.32917398 14598:0.21510191 16772:0.29794673 
32 9185:0.43656045 15413:0.44179269 15670:0.34879239 16380:0.70183906 
32 939:0.7192528 8916:0.3368684 16199:0.60761427 
32 8232:0.76007409 10694:0.44224707 16004:0.47613538 
6.032935364743044 6526:0.32615245 9295:0.5255488 12383:0.39570491 12481:0.34563539 14096:0.5255488 14598:0.25529453 
32 5990:0.46452548 7230:0.2726042 11989:0.57226145 16276:0.43087657 17030:0.44358229 
32 2256:0.74338431 14814:0.66886453 
30.38883322842592 754:0.30867714 994:0.40133105 3286:0.22695681 5540:0.34287294 5908:0.32577504 5984:0.16841445 6056:0.28311723 6405:0.24577612 6578:0.37210199 6962:0.40133105 
32 4067:0.47974691 7039:0.43194068 10677:0.48679851 15531:0.25922922 17120:0.52829686 
32 104:0.32334958 641:0.28602428 2443:0.26247464 3038:0.32334958 4281:0.25975519 4989:0.32334958 6261:0.30957392 6948:0.30957392 8107:0.32334958 13142:0.29221865 13467:0.22421846 13737:0.19043879 
32 3650:0.37320113 6056:0.33687783 6116:0.20370613 8359:0.41468049 8394:0.47753904 9664:0.31406102 10239:0.33113718 12375:0.31216736 
32 472:0.3340744 7766:0.54315508 8467:0.25387103 8916:0.22989958 10538:0.47165948 14982:0.50359694 
32 518:0.31335726 1596:0.21071629 1780:0.29895865 3953:0.33797185 5278:0.32357324 8916:0.14305231 10610:0.24425538 10766:0.16694067 13046:0.27743396 13982:0.3683634 14125:0.33797185 16227:0.33797185 
20.43879567651459 1131:0.42791761 1147:0.27188586 3017:0.32346818 5025:0.50319553 10042:0.29480684 15416:0.54609168 
32 723:0.38998439 6735:0.33420679 8366:0.51821033 8368:0.57341684 15028:0.37265155 
32 1814:0.4506114 6116:0.2213567 6876:0.25631798 9555:0.51891647 10674:0.51891647 14211:0.29659471 15531:0.23608186 
32 3056:0.32822747 3158:0.43592978 4100:0.28249089 4734:0.30353929 4999:0.26106341 11149:0.20289769 16093:0.53508126 16792:0.26639547 17072:0.25237803 
32 5161:0.54994325 6199:0.24393216 12643:0.54994325 15415:0.27501527 16245:0.50989072 
32 4740:0.41748921 5397:0.25353117 5752:0.38708335 6134:0.18872885 8361:0.41748921 9146:0.38708335 10766:0.20621814 12876:0.22260618 14267:0.39970292 
32 485:0.2732706 6116:0.2020113 10264:0.24441972 10904:0.39348277 13095:0.43907599 14237:0.33718593 15472:0.3642354 16350:0.35425034 17008:0.32450288 
32 7279:0.74191891 8727:0.67048962 
32 1637:0.73330582 1705:0.67989895 
32 2860:0.40278551 5211:0.34411554 8463:0.40278551 9241:0.37345053 12145:0.31478056 13097:0.37345053 13515:0.28678923 13737:0.23722308 15415:0.20142472 
32 5141:0.6673552 10503:0.31887053 11779:0.56188888 16631:0.3704585 
32 915:0.29907109 2908:0.30065238 2993:0.30762421 4130:0.34383975 5233:0.37397833 5715:0.25452484 9416:0.31593144 9503:0.26593264 13345:0.23918389 13497:0.31828232 17292:0.27132655 
32 2921:0.36081247 4308:0.34058467 4856:0.34058467 4993:0.25537864 6152:0.1540955 8957:0.37686818 11077:0.18551732 13458:0.2801555 13826:0.33336505 15456:0.23901715 15624:0.16746205 16773:0.18489124 16932:0.25185648 
32 870:0.38637154 2545:0.36471085 5767:0.34478115 9399:0.4035646 11475:0.38637154 13453:0.19209828 14211:0.23066357 15531:0.18360234 17005:0.4035646 
32 1402:0.42058814 1854:0.45362584 4115:0.45362584 4572:0.45362584 16247:0.45362584 
32 2184:0.4354845 3551:0.61204247 8408:0.66011913 
32 3760:0.30546223 5285:0.42971565 9009:0.42680198 12317:0.73476347 
32 1709:0.299853 5323:0.32393059 6080:0.38985822 6769:0.36146474 8241:0.23875013 13453:0.185574 14242:0.20934516 14900:0.38985822 15219:0.3732491 16773:0.19126415 17289:0.24363895 
32 8035:0.40905724 10631:0.47879944 11218:0.40313177 11964:0.44392834 13094:0.3348068 17092:0.36296016 
32 5142:0.25224265 5346:0.32283512 5430:0.19521973 12876:0.17979626 13924:0.33720089 14144:0.33720089 16666:0.29827669 16812:0.33720089 17113:0.33720089 17257:0.32283512 17259:0.33720089 
32 578:0.69155273 12832:0.72232598 
32 2696:0.41398955 3776:0.30412373 4432:0.32934506 4593:0.27485154 9104:0.18883395 9381:0.25245412 11579:0.36620138 13345:0.23928225 15917:0.25633556 16683:0.31170786 17092:0.31383017 
32 1520:0.51149971 6952:0.44475055 10264:0.29844931 13345:0.33422266 14868:0.4940208 16700:0.30940535 
11.54971627444005 924:0.31231458 1429:0.38197822 5165:0.33032165 6457:0.28853174 6975:0.29430752 11913:0.27630045 13389:0.42267151 15411:0.26230742 15692:0.28746155 17107:0.26672064 
32 1015:0.47813669 5116:0.4135337 7084:0.39305181 11283:0.39848375 16189:0.53581355 
32 1147:0.27154422 6134:0.26592141 9896:0.52034437 13720:0.46797433 15624:0.26138893 16351:0.54540548 
32 459:0.30958549 690:0.27436493 1010:0.45179611 8661:0.22887554 10307:0.38039595 13854:0.29113548 15415:0.22593391 15959:0.45179611 17292:0.29622654 
32 5984:0.20970622 6805:0.49972918 7881:0.32292093 11825:0.29484639 14177:0.3115676 15918:0.41021714 17082:0.49972918 
32 1937:0.30091571 3071:0.36605566 6134:0.19369112 8095:0.42846631 9541:0.42846631 10371:0.42846631 11389:0.36605566 15455:0.23062924 
32 1147:0.28310182 6409:0.45590258 11077:0.30189599 12498:0.52395358 15670:0.30478376 16159:0.50343273 
32 3607:0.48937898 5879:0.62619738 6116:0.26712003 11283:0.44586177 15288:0.31343138 
29.07028847129983 8667:0.39909286 10833:0.61231954 11077:0.30142072 15130:0.61231954 
32 552:0.32949674 553:0.32949674 981:0.31545919 4425:0.31545919 4469:0.26469336 6152:0.13472606 6199:0.14615117 6977:0.19928081 8661:0.16691986 9254:0.19013566 10766:0.1627544 11577:0.18471063 11669:0.20448371 13682:0.22578195 13805:0.32949674 16627:0.32949674 
32 8958:0.53436328 10342:0.73150755 17072:0.42350039 
32 485:0.26584435 10713:0.53611013 11614:0.32355131 13895:0.38788981 13900:0.33294968 14051:0.41634236 16700:0.24650629 17065:0.20446748 
32 6120:0.37415429 11149:0.25790934 11953:0.44980217 13774:0.55412342 14911:0.44980217 16065:0.28599754 
32 1504:0.23268402 5715:0.26902713 6701:0.27533265 6705:0.40554211 8123:0.43739793 8540:0.43739793 11693:0.3682732 13651:0.33904428 
32 465:0.3221705 1901:0.40497108 5565:0.32872978 8904:0.40497108 14400:0.3877181 15567:0.23523551 15624:0.17994962 16717:0.32532388 17086:0.34097096 
32 1311:0.50135534 8234:0.50135534 9664:0.32972418 14242:0.26921663 14503:0.31716508 15271:0.32676948 15525:0.32972418 
32 3760:0.30716894 3803:0.59976673 6247:0.7388688 
32 7230:0.33322383 7525:0.63216963 16388:0.69951657 
32 4410:0.39903924 4808:0.35769713 6152:0.21811537 8241:0.32668012 9058:0.37463985 15142:0.53344025 15907:0.36553073 
17.0009504972537 2475:0.70469824 9782:0.63685243 17065:0.3127609 
32 485:0.1837161 631:0.28162122 1160:0.28772023 2881:0.28772023 5984:0.13360151 6631:0.4200637 7727:0.31837193 7862:0.31837193 9104:0.29043935 9272:0.23130691 10832:0.31837193 13860:0.25327746 15531:0.14484381 
32 3685:0.42395961 4057:0.40947211 4255:0.38905314 6033:0.47928505 6034:0.47928505 6116:0.20445093 
32 474:0.33743882 4810:0.28037566 5397:0.20491849 10440:0.22192191 11646:0.32306292 12336:0.68905064 13353:0.26599976 16770:0.25761851 
32 4410:0.46042516 6516:0.49444861 6557:0.34653869 16611:0.48102017 17026:0.43824626 
32 8245:0.36315937 11136:0.27893293 12566:0.39574261 13451:0.42832585 14631:0.41480258 14718:0.30775354 15996:0.42832585 
32 6376:0.57909045 8449:0.54662559 9759:0.60485926 
32 6116:0.39555016 6405:0.28393131 6632:0.33011507 6745:0.46363515 10884:0.35938178 11791:0.41011623 13886:0.37634955 
27.37571855507167 7230:0.59332969 14135:0.54079512 15231:0.59623863 
32 1792:0.48660621 3203:0.36887818 4313:0.27684365 4554:0.37426512 12228:0.46587533 14264:0.43975752 
32 1147:0.21698661 2607:0.31413498 5913:0.4700593 5965:0.45003337 6134:0.21249352 6876:0.23218505 14211:0.26866964 16756:0.31519718 17065:0.20862287 17096:0.3415124 
32 4593:0.49437194 7067:0.55021738 12154:0.67294666 
32 11359:0.74030472 14810:0.67227146 
32 2709:0.4309318 2710:0.4309318 2732:0.3244643 3380:0.37420817 3760:0.1791507 4057:0.36816203 6134:0.19480567 9104:0.19656185 11949:0.29307942 17103:0.23057997 
32 644:0.52747177 2947:0.4441121 8766:0.40886404 9937:0.34379144 11315:0.48905585 
32 6134:0.16217385 7881:0.23181913 7884:0.3173353 10860:0.30205162 11056:0.25423613 11473:0.34346292 12138:0.33261898 12541:0.35874659 12755:0.35874659 15073:0.35874659 17325:0.22065163 
32 565:0.65021202 4440:0.46751684 6925:0.32370705 9104:0.29658261 17234:0.40731417 
32 9153:0.76285071 10389:0.42934471 16750:0.48344794 
32 1768:0.38536683 5430:0.22310501 6134:0.17420771 6199:0.17093284 8916:0.16311304 10230:0.27310133 10327:0.38536683 14512:0.33464093 15500:0.30957527 15899:0.38536683 17463:0.36894905 
1.494893731836237 1139:0.55001667 4455:0.46990093 6116:0.23462326 6199:0.24396472 8480:0.55001667 17065:0.24410975 
32 3605:0.37664445 6141:0.48466205 11625:0.49723607 15660:0.53629456 17285:0.29729799 
32 153:0.38480873 4808:0.27830138 6051:0.26125624 6134:0.18761982 6238:0.33017748 7293:0.36712696 7334:0.38480873 9932:0.33340923 10042:0.20773846 13345:0.23988704 17289:0.25937356 
32 270:0.449596 4155:0.55386943 12442:0.42932591 12769:0.55386943 
14.59671963377878 1147:0.18095609 1835:0.25860879 2498:0.39200616 7230:0.18673724 8152:0.39200616 8467:0.18322393 9327:0.39200616 11077:0.19296915 16593:0.37530553 16820:0.28965577 17341:0.33005498 
32 781:0.26038245 818:0.23004626 982:0.26038245 5984:0.12352581 7462:0.19738347 8300:0.29436157 8586:0.28182089 8638:0.29436157 9205:0.13199441 9503:0.18916551 11378:0.25561471 11539:0.27292314 12014:0.22640333 12532:0.28182089 13843:0.25561471 16308:0.27292314 16466:0.20248925 
32 1347:0.39041173 2616:0.36230252 9205:0.19790952 10193:0.29208567 10201:0.35111876 13515:0.31425432 13860:0.35111876 15567:0.25637232 16150:0.27921065 16605:0.32066096 
17.10821650767121 1147:0.23443389 2274:0.38498642 6116:0.21663833 8828:0.50785542 10639:0.34935016 13383:0.47086817 16215:0.38498642 
32 1798:0.25596121 1905:0.35230622 3307:0.26189669 5399:0.28027353 6959:0.21914278 9223:0.31838745 10773:0.2859798 14269:0.28301682 14345:0.27308636 14796:0.2157532 16405:0.35230622 16981:0.32664766 
32 3465:0.41335939 4590:0.27355572 4591:0.37356264 5991:0.22385931 6976:0.25050923 7218:0.41335939 8241:0.25314231 9937:0.26941616 11309:0.35894882 15917:0.25594537 
26.47188733921535 1867:0.22209546 2274:0.23757215 3098:0.23296994 3636:0.28322124 4332:0.31339366 9466:0.18696485 13014:0.31339366 13729:0.24704519 14213:0.21731478 16971:0.1650376 17104:0.62678732 
32 4392:0.63559737 7262:0.5281136 10918:0.39627772 14706:0.40009496 
32 3760:0.33109572 5108:0.65376654 13035:0.68041527 
32 1871:0.29730083 3760:0.16824616 4744:0.40470186 5430:0.23429888 8279:0.34575276 8996:0.26455368 9104:0.18459753 10440:0.26615851 10713:0.2354747 10871:0.35143089 14242:0.21731587 15031:0.2794961 15456:0.25666982 
32 2053:0.52604903 10955:0.7032284 11949:0.47827004 
32 724:0.34261883 5984:0.21725503 7161:0.41186512 10697:0.25169469 11153:0.37613789 14876:0.51771798 15624:0.2300489 17058:0.37415957 
32 184:0.31126642 7454:0.35188574 9719:0.24205971 10232:0.25850122 10697:0.17107339 10872:0.3262578 11589:0.35188574 13518:0.31126642 13599:0.35188574 15456:0.2231728 15966:0.35188574 
32 1164:0.23773145 3607:0.3504424 3760:0.18642002 5220:0.38310078 6521:0.4728083 9294:0.29313063 14324:0.36022556 14814:0.29313063 15752:0.33762995 
32 1164:0.24542046 4322:0.46292083 6145:0.2999816 9104:0.21115307 10413:0.34855001 10694:0.53869849 13345:0.26756409 15872:0.3280622 
32 653:0.32427334 928:0.32427334 5715:0.19944842 6754:0.20566048 6925:0.32287796 8916:0.13725418 10739:0.25797226 10740:0.28684141 12481:0.21326343 12510:0.15243369 15028:0.21073842 15065:0.32427334 16638:0.16059067 16773:0.31817651 16850:0.30065642 
32 3389:0.41250335 5546:0.39039552 6134:0.26667351 12876:0.31454211 13515:0.42002567 14568:0.51226132 17065:0.26181595 
32 733:0.4106031 2911:0.4106031 4120:0.34571293 4276:0.28357163 4808:0.27532896 6370:0.25721527 9202:0.36320584 9328:0.36320584 10713:0.23890832 
21.97545871081747 3651:0.91402242 17065:0.40566367 
32 2346:0.26411199 4001:0.35743644 7884:0.31617638 9182:0.22846782 9832:0.30094852 10325:0.33140424 11443:0.26912696 11669:0.22182292 11812:0.31617638 15624:0.15882752 16093:0.21936737 16330:0.28176369 17095:0.27491632 
32 2254:0.51863198 5791:0.3977046 14469:0.75686982 
32 1147:0.39059541 6616:0.59425797 16403:0.70305953 
32 3043:0.45170952 3286:0.25544635 4978:0.32818073 9432:0.25006755 10713:0.26282597 11752:0.45170952 12075:0.40822055 16750:0.25322117 16971:0.23787672 
32 1164:0.242449 1650:0.43783293 3558:0.33595203 6607:0.30264558 6622:0.38504345 11192:0.4240095 11911:0.41328722 12510:0.21497407 
32 146:0.30557353 562:0.17759584 1596:0.22299897 2608:0.28732752 3492:0.32323688 6152:0.1462466 9140:0.23048248 10681:0.29360563 12117:0.35767228 12160:0.32323688 14259:0.35767228 15207:0.34243437 
32 7667:0.65679792 9370:0.5438377 15031:0.52235721 
32 403:0.32375413 404:0.32375413 1121:0.30996124 3760:0.13459387 3782:0.27258924 4577:0.27659592 5382:0.32375413 7162:0.32375413 14598:0.15726924 14626:0.30017503 15193:0.32375413 16417:0.30996124 
32 3654:0.34981164 7473:0.36121609 9028:0.36121609 10535:0.25853129 12268:0.33373797 12799:0.36121609 13737:0.22220719 14558:0.37728976 16069:0.34096566 
32 2008:0.32577525 2321:0.19765368 2545:0.3075117 3339:0.34027185 4484:0.34027185 6213:0.30099316 10953:0.34027185 12283:0.34027185 15624:0.1512004 15925:0.31548976 16673:0.20076459 17325:0.20928851 
32 4225:0.40237693 4284:0.32323993 5430:0.23295287 8066:0.29080153 8921:0.31446125 14598:0.19546164 15018:0.40237693 15186:0.38523447 16753:0.22857533 17065:0.17858392 17289:0.25146243 
32 1000:0.33719363 1504:0.19346836 2202:0.31070667 6401:0.29215415 7588:0.36368059 7910:0.36368059 9104:0.16588641 9190:0.24223886 10713:0.21160657 13992:0.27205076 15185:0.22892916 15588:0.32169975 16750:0.20387355 
32 1378:0.19375834 1618:0.16252871 2188:0.37235698 2961:0.41053184 3331:0.18617849 4255:0.34807259 6645:0.18051703 7370:0.2144 11136:0.13367259 11850:0.16038162 14714:0.20526592 15055:0.34446628 16301:0.13216011 16319:0.28561333 16638:0.21235566 17000:0.2144 
32 5113:0.53477657 7920:0.55857347 9381:0.34062255 15140:0.53477657 
32 891:0.4452495 4723:0.4452495 5899:0.46506255 8661:0.23559619 10766:0.22971692 14436:0.46506255 15455:0.25032778 
32 1456:0.347889 2153:0.31553922 2409:0.29190434 2443:0.29496037 3307:0.27012098 5546:0.48094632 12336:0.3710007 14659:0.347889 17072:0.21036991 
32 2339:0.52284427 3760:0.33542422 8771:0.54873319 16982:0.55947864 
32 4554:0.29246562 4864:0.34364398 8427:0.38025341 9489:0.38025341 9693:0.38025341 12876:0.20275196 13515:0.27074603 14177:0.23707769 15015:0.21767974 15818:0.38025341 
32 1131:0.45231544 5400:0.4547842 7189:0.57722723 7947:0.50536204 
32 1165:0.4394685 7197:0.37545527 7230:0.20934654 12510:0.20658438 13780:0.4394685 14415:0.4394685 16637:0.4394685 
32 724:0.27487531 4734:0.28921188 4912:0.35485277 5991:0.22493918 8241:0.25436343 9050:0.37536465 9066:0.34971249 9636:0.32741905 11350:0.30690717 12118:0.36740778 
12.2535705470047 6631:0.50250174 10799:0.76170566 14242:0.40901893 
32 3009:0.32593105 6217:0.48933022 12510:0.23002327 12565:0.45369216 12868:0.36375731 14153:0.41199831 14760:0.30580323 
32 1761:0.65143607 6631:0.42975623 14242:0.34980662 14928:0.51824315 
4.149081378450294 818:0.44494907 5791:0.29916837 5984:0.23892018 6405:0.34866887 10050:0.35839111 12130:0.47306575 15624:0.25298989 15919:0.3429672 
32 6360:0.22744248 8801:0.28195229 8955:0.32541901 8965:0.32541901 9132:0.21270594 9254:0.20253316 13720:0.27921931 14376:0.70196213 
32 5422:0.82670074 5715:0.56264188 
32 1351:0.46928928 3084:0.51208793 3760:0.29755628 14691:0.50723432 17072:0.41437558 
32 1334:0.47124203 2882:0.45116571 6739:0.47124203 6925:0.23460712 7060:0.37147553 14211:0.26934565 14760:0.29449915 
32 12005:1 
32 97:0.31697004 2622:0.33264015 4156:0.37787531 4590:0.27671384 4593:0.27760143 9431:0.41813151 10508:0.37787531 14656:0.41813151 
32 8344:0.58574994 9180:0.81049183 
32 4526:0.49797437 6145:0.38326707 7197:0.5052939 8764:0.59144396 
32 760:0.30685947 2794:0.24844323 4698:0.32051434 6614:0.25265835 6952:0.2465183 9593:0.28351632 9823:0.28965637 9824:0.28351632 11149:0.14917911 14682:0.29717119 14769:0.32051434 16505:0.23683002 16771:0.32051434 
31.68652563652162 376:0.28040818 383:0.26262506 3017:0.16609505 4049:0.19654587 4206:0.30243458 4437:0.24826216 5859:0.28954996 6426:0.15997653 9601:0.30243458 10389:0.15056659 11274:0.28954996 13136:0.15739158 15455:0.16279053 15954:0.30243458 16468:0.30243458 16613:0.30243458 
32 204:0.3649933 6402:0.29874117 8847:0.31567757 9009:0.24816087 9381:0.26052387 11111:0.26052387 11432:0.33987264 14336:0.42722282 15063:0.42722282 
32 8916:0.3897884 9424:0.92090445 
32 1971:0.45921299 6134:0.23468029 6961:0.40571179 8727:0.46915807 11908:0.38136821 16350:0.38834113 17065:0.2304055 
32 425:0.4816828 4313:0.27404259 5129:0.3446248 5984:0.20213324 6145:0.31213972 6516:0.38694842 14859:0.29435501 16312:0.44660171 
32 724:0.28484325 2888:0.38897669 5542:0.28575691 9416:0.32860183 10697:0.20925158 10918:0.26835242 12535:0.39906826 13310:0.331047 13453:0.20487944 15124:0.38897669 
32 545:0.41832569 5205:0.44901078 7150:0.46065987 11534:0.40784978 12757:0.35907466 15907:0.34045464 
32 466:0.23944496 694:0.30072518 6065:0.32201753 6152:0.16220527 6370:0.24850721 10713:0.23082004 11149:0.18463968 11482:0.39670208 12068:0.23534176 13329:0.39670208 15455:0.2135316 16602:0.39670208 
32 562:0.2079469 1601:0.37045507 1867:0.29679352 2159:0.41879833 2732:0.31532857 5282:0.22030277 6521:0.22078901 9405:0.40095627 9719:0.28808841 14630:0.33995387 
32 574:0.37000455 1071:0.23348592 1147:0.1707998 2256:0.26881958 2871:0.2718116 3017:0.20320402 4158:0.34305701 5155:0.35424125 6116:0.15783462 6863:0.37000455 6977:0.22378008 12094:0.37000455 
32 1046:0.48000887 5977:0.4627761 6300:0.57010635 16465:0.48000887 
32 97:0.36462549 562:0.23883018 5791:0.25274417 9205:0.21568311 10389:0.23946325 11427:0.48099627 13865:0.37916471 14189:0.39483969 14213:0.33353451 
32 6458:0.60523908 7305:0.51707961 11313:0.60523908 
32 2242:0.45462551 6062:0.36095987 9454:0.54715269 10355:0.45462551 15670:0.27191803 16971:0.28813847 
32 690:0.38028691 2254:0.4291048 3760:0.2603366 10766:0.3093192 13988:0.59953886 17325:0.38516305 
32 5359:0.36458708 5766:0.32627111 6607:0.30607867 11126:0.46250356 13082:0.41797538 13681:0.36145076 14658:0.38429111 
32 641:0.29676764 1616:0.33549491 3462:0.33549491 4552:0.33549491 6636:0.2400332 10987:0.33549491 11711:0.24789926 11714:0.28247455 14457:0.33549491 17072:0.19423207 17124:0.33549491 
32 562:0.18785117 1104:0.26454956 1504:0.20125943 4588:0.29325546 5282:0.19901299 6925:0.18834911 7037:0.29823088 7957:0.34190231 7960:0.3143487 8414:0.32852705 9185:0.23532782 9205:0.16964491 11913:0.2473119 14211:0.21623817 15015:0.21657648 15684:0.20388661 
0.684140622189136 1556:0.33429033 1863:0.42407007 2976:0.38324213 3025:0.42407007 3286:0.23981596 5984:0.17795665 6077:0.35235698 8352:0.34423313 16971:0.22332139 
32 3760:0.13306525 3775:0.32007716 5764:0.29676585 6116:0.27307372 6133:0.23381506 6175:0.28926129 7214:0.21319568 11101:0.18440116 11405:0.32007716 15288:0.16020863 15684:0.17249519 16315:0.32007716 16739:0.32007716 17227:0.23014257 17305:0.28926129 
32 1147:0.17715137 4100:0.24868645 5174:0.31502376 6092:0.33324907 6426:0.20299674 8223:0.3674145 11435:0.383764 11850:0.28707412 16093:0.23552523 16505:0.28356558 16756:0.25733206 17089:0.29747052 
32 1271:0.59399028 5865:0.47936216 14811:0.64605531 
32 4240:0.45185646 5546:0.37588649 7760:0.56798743 13491:0.40839554 15862:0.40637231 
32 690:0.19814058 1850:0.32627765 4617:0.32627765 4633:0.32627765 6145:0.21143419 8885:0.27875186 11350:0.24108856 11733:0.32627765 13550:0.31237725 16908:0.32627765 17311:0.24254762 17381:0.30251476 
32 1722:0.38827518 2168:0.38827518 4220:0.35999699 6426:0.20538299 8680:0.3187269 9432:0.21495014 10616:0.31517711 12112:0.30607357 14859:0.23727388 15488:0.35999699 
32 955:0.32956296 1314:0.36242032 4437:0.37033921 6609:0.32956296 11315:0.41829227 11515:0.32438657 15684:0.24313244 16788:0.41829227 
32 5129:0.467052 10020:0.47178428 11101:0.37608743 16669:0.52441099 17072:0.37793303 
32 1026:0.67178153 11693:0.56561569 14702:0.47831836 
32 4986:0.2140024 5189:0.27443282 11059:0.34162065 11614:0.23992322 12336:0.34879497 12934:0.2876322 15824:0.68324129 16700:0.18279198 
32 592:0.50134338 1024:0.50134338 2053:0.39171755 3620:0.50134338 9009:0.304174 
19.30353691350119 5397:0.35460077 6152:0.23875587 6701:0.36756535 6876:0.28842651 8561:0.5839203 9182:0.37323279 11825:0.34452019 
32 3799:0.27787376 5129:0.27649715 5282:0.203292 5397:0.23468827 8850:0.22760845 9160:0.32538585 9891:0.38646064 12729:0.34185023 14751:0.38646064 16065:0.19946241 16289:0.36999627 
32 5554:0.56750406 10503:0.27116043 12918:0.52617257 14318:0.47781784 16631:0.31502969 
32 1328:0.46218854 13625:0.68206233 15139:0.56672103 
32 3370:0.47057185 6058:0.66090182 15117:0.58461176 
32 754:0.46873101 10332:0.60942741 12222:0.52920837 16316:0.35892614 
1.395425372670543 2459:0.55605318 5991:0.3011367 8871:0.55605318 10042:0.27832201 12241:0.46202087 
32 4777:0.53204489 11669:0.33018388 11949:0.36184706 13795:0.39084917 15919:0.32049747 16174:0.4706292 
20.05999011273529 5998:0.81964684 10057:0.57286915 
25.48338611502259 6976:0.198586 9009:0.19034066 9124:0.28454924 10221:0.60763382 11815:0.43945294 12564:0.27226886 13892:0.24672382 15415:0.16386705 16301:0.20198928 16953:0.27995173 
32 2544:0.2758178 3276:0.28480992 3663:0.29748361 6107:0.53768592 8866:0.28480992 10154:0.24717714 11459:0.23897638 12113:0.20158497 12263:0.19564475 13409:0.29748361 15300:0.19332834 16237:0.24717714 
32 2055:0.39212257 2424:0.34287072 8661:0.23907461 8667:0.30759014 9021:0.30410896 10304:0.43755818 10766:0.23310854 13300:0.35302575 15862:0.33764627 
32 10210:0.70710678 10924:0.70710678 
32 1074:0.68058082 8594:0.57088601 11111:0.45923732 
32 9997:0.31348082 12524:0.46092917 14475:0.46092917 15092:0.44129221 16769:0.46092917 17313:0.26386336 
32 1344:0.31731781 4122:0.3624421 9257:0.39091236 10503:0.18678274 11960:0.33397184 11988:0.28884755 12481:0.25708962 12510:0.18375921 14347:0.29242145 16063:0.39091236 16631:0.21700109 
32 1147:0.17992483 5984:0.16356387 6116:0.16626698 6278:0.38977214 6735:0.22717242 10694:0.22678787 11825:0.22997038 12718:0.56945391 15411:0.24189026 15650:0.31007915 15659:0.28800503 17103:0.20855654 
32 1709:0.23247487 2618:0.28024221 3167:0.28937857 3179:0.28937857 3684:0.30225556 4566:0.25448823 6263:0.27315549 6285:0.22610185 6631:0.19939979 7500:0.25114213 10523:0.24280982 11744:0.23429014 12580:0.21521042 13952:0.24811521 15531:0.13751164 16435:0.27315549 
32 3307:0.45852117 8486:0.61680758 10196:0.4481295 16773:0.30260533 17285:0.34193084 
17.63797635761795 6701:0.42188927 9628:0.53840543 11149:0.31194502 15411:0.41593463 16199:0.51168127 
20.31883609348815 5025:0.35761133 8777:0.57816443 11443:0.31516589 13429:0.29947888 14825:0.3880968 15502:0.30749761 17095:0.32194562 
15.81353975601146 6142:0.31143276 10042:0.28383783 10503:0.27095451 11077:0.27914769 13406:0.5429141 13429:0.40571815 13737:0.3339813 16679:0.31654304 
32 4163:0.42852065 5984:0.20329081 6116:0.20665046 7722:0.35011021 9466:0.28900871 11077:0.23847131 12634:0.48444129 13779:0.48444129 
12.12484161910126 3760:0.25596119 9437:0.39459328 11104:0.39566259 11517:0.58946257 17065:0.27325834 17096:0.44731967 
32 16350:0.59899948 16573:0.80074941 
32 5991:0.25730399 6429:0.3308244 6691:0.33367782 8916:0.20110066 9503:0.30532333 14077:0.47511546 14262:0.30449817 15413:0.29907503 16466:0.32682857 16700:0.25422145 
32 289:0.24526925 3381:0.26617784 5111:0.42682745 5128:0.1990727 5306:0.21917685 5519:0.28708642 6199:0.1273397 8916:0.24302838 9438:0.24526925 9593:0.2539471 11579:0.2539471 12403:0.22253194 13330:0.22253194 14348:0.26617784 14402:0.28708642 
32 2796:0.19675204 7109:0.17404031 8318:0.19675204 8319:0.37673964 9349:0.36484507 10715:0.33131617 10718:0.18242254 11694:0.19675204 15892:0.19675204 17494:0.19675204 17495:0.56510946 17496:0.19675204 
32 3453:0.74871986 15699:0.66288655 
32 930:0.31023175 1187:0.28036376 1335:0.27442069 2254:0.21258096 3762:0.17596499 3984:0.28036376 4100:0.20103615 8953:0.29701495 9121:0.1833715 9731:0.31023175 15007:0.31023175 15619:0.28036376 17065:0.13768782 17265:0.29701495 17421:0.23358483 
32 9466:0.38665044 11077:0.31903896 13826:0.57329657 14412:0.64811003 
32 1494:0.31130563 2968:0.23957744 5143:0.3018392 7137:0.3584943 9432:0.19846337 9447:0.3584943 10036:0.33238506 10264:0.18502825 15150:0.34322137 15245:0.25908715 17223:0.3584943 
32 3760:0.35516684 6276:0.43828535 11908:0.62760062 15624:0.37962025 17065:0.37916803 
32 10366:0.68581054 12030:0.58591498 15185:0.43170308 
19.99238400829201 7088:0.55310886 15887:0.83310899 
32 724:0.23513879 5011:0.30355455 5539:0.67603184 6022:0.35530907 6134:0.16061989 8467:0.16607169 11577:0.19918061 12510:0.1670229 13982:0.19362982 16531:0.28266242 16638:0.17596057 
32 2990:0.35911699 3213:0.24131618 3653:0.3192216 10632:0.20745747 13448:0.39737481 14592:0.38044545 14593:0.38044545 15185:0.25013895 16456:0.39737481 
32 199:0.3539457 562:0.17574547 1147:0.16338679 1842:0.2544948 5405:0.26153266 6116:0.15098432 10309:0.25201456 10734:0.3539457 12145:0.5532236 16594:0.3539457 17313:0.20261964 
32 278:0.22442818 3736:0.31813676 4313:0.18099675 5284:0.27179678 7230:0.15154859 7390:0.22246131 8459:0.26433771 9075:0.31813676 9294:0.20796606 12545:0.31813676 12580:0.22651807 14792:0.26115175 16117:0.26115175 16632:0.30458318 16640:0.21053865 16700:0.17022639 
32 2871:0.37347495 6199:0.2255027 9863:0.85609891 13982:0.27705533 
11.18158560929867 754:0.38710418 814:0.4237596 1178:0.45484328 10050:0.31681603 13998:0.38153245 15486:0.46664369 
32 3760:0.34124678 4275:0.6530108 5984:0.34445713 14598:0.39873747 16065:0.42365699 
32 1882:0.58247917 6876:0.32526056 10309:0.46885526 10503:0.31463508 10697:0.32013311 16631:0.36553781 
32 1837:0.48954492 4285:0.48954492 11408:0.39326426 11994:0.39326426 12336:0.24991289 13353:0.38590353 
32 1936:0.32092277 2321:0.26181252 5376:0.37949402 9438:0.38507205 9666:0.27783513 13865:0.35530207 16596:0.2530321 16753:0.25604 17081:0.45072489 
31.22289319126013 308:0.54980046 836:0.4863352 1216:0.40625095 5984:0.23071811 7088:0.36501767 15919:0.33119322 
32 12812:0.80826046 14503:0.58882512 
25.37273514325707 889:0.33898441 2607:0.27907976 3634:0.26622394 4308:0.37739862 4385:0.35160745 5059:0.33898441 6199:0.18523194 9234:0.31043764 13247:0.41760403 14242:0.22424404 
32 159:0.43730014 206:0.47165059 4716:0.45155687 5234:0.34086624 6199:0.20920476 9170:0.47165059 
32 1562:0.49699939 2201:0.38377864 8850:0.33708097 15161:0.57233609 17036:0.40560249 
32 11149:0.52580979 16021:0.85060218 
30.20237194560366 9740:0.79176194 11809:0.49962972 17065:0.35140172 
32 322:0.30507465 485:0.23533621 1164:0.21621228 1504:0.21695324 2400:0.39045265 2880:0.39045265 8771:0.27736591 10766:0.20144566 11928:0.37812513 13466:0.27839852 15350:0.33886099 
32 2346:0.24581737 4988:0.3084484 5111:0.24730505 5340:0.3084484 6063:0.3084484 6370:0.20840005 7016:0.31850434 8661:0.16853115 8834:0.33267739 12068:0.19735939 12359:0.31850434 15455:0.17906923 16466:0.22884643 16750:0.18649365 16932:0.22232431 
32 3782:0.41310961 4960:0.45491594 6145:0.31795072 8916:0.20767597 10157:0.49065012 15502:0.36043988 17219:0.32789559 
32 651:0.53842317 11264:0.60868576 14953:0.58275393 
32 1079:0.22978466 1326:0.3047674 2346:0.2927899 4091:0.39624774 4100:0.25677616 5622:0.25605206 6134:0.1791265 6976:0.24013902 10618:0.30967123 10827:0.36738891 14598:0.19248427 15624:0.17607339 15670:0.19692292 17072:0.22940443 
32 3762:0.27435708 5397:0.29373943 10697:0.23515648 10729:0.26227783 11671:0.40190315 12495:0.48370006 12599:0.48370006 15919:0.29137513 
32 2732:0.44443865 9132:0.35772506 10394:0.56512628 10694:0.34344917 15624:0.26228917 16700:0.31583952 17065:0.26197672 
32 3760:0.22527405 5220:0.4629474 6145:0.35114711 7019:0.4398618 9666:0.33402334 10697:0.26344017 17065:0.24049745 17360:0.4234823 
32 4156:0.56136708 8771:0.42246243 8916:0.26292123 10256:0.59470746 11149:0.28911583 
32 725:0.26682417 1705:0.38176535 2321:0.2391752 4590:0.27249294 5991:0.22298961 7067:0.30424718 10677:0.35177723 12223:0.3466815 15172:0.3342353 15624:0.18296339 16969:0.3466815 
32 2412:0.37513224 2715:0.40601853 5592:0.38325639 5984:0.17796327 7230:0.20201882 8241:0.25971122 8625:0.42408585 10264:0.21888176 16522:0.42408585 
32 1378:0.38842004 2148:0.35281342 6134:0.19429385 8276:0.4297996 8344:0.31062015 11373:0.4297996 14037:0.35281342 17058:0.31062015 
32 829:0.52867759 4874:0.45167011 5142:0.39547654 10700:0.52867759 14242:0.28388806 
32 1638:0.38624779 1842:0.27772072 2254:0.26466963 3118:0.32998672 5287:0.26080159 5670:0.32520664 7000:0.32093071 7004:0.29488185 8916:0.16348592 14216:0.2871281 15793:0.34906125 
2.303123443111661 267:0.33251938 1450:0.49589222 6975:0.34529133 8322:0.41203353 15692:0.33725941 16292:0.3843855 17325:0.30500478 
32 989:0.3807834 4977:0.23935288 5393:0.26269993 5546:0.2788434 6514:0.31133767 10968:0.32168026 11460:0.33520011 11519:0.3807834 11577:0.23620177 15531:0.19169357 16276:0.31724937 
27.49259207901853 472:0.28387893 4143:0.46154473 5234:0.33356265 5282:0.24278889 7748:0.46154473 8967:0.46154473 11358:0.33186088 
32 8572:0.46568484 8916:0.26831535 10050:0.39903608 14859:0.38738381 16116:0.63391521 
32 2948:0.48290338 4395:0.46071421 6876:0.25726613 6977:0.31500349 8777:0.35970093 9104:0.23757005 11101:0.30006129 16600:0.33655999 
19.42936576475168 2755:0.69972664 7450:0.6076215 14242:0.37573758 
32 2424:0.31495625 4725:0.39177076 7796:0.43350728 8355:0.35585698 8467:0.20262158 9185:0.26965176 13136:0.22560382 14443:0.40193482 16021:0.32640348 
3.703472394549687 3132:0.31042966 5246:0.31427059 6233:0.42012055 6238:0.33422251 7753:0.37162466 9254:0.24243001 10042:0.21028348 13136:0.21863716 13612:0.42012055 15684:0.22641032 
19.33760205082475 1595:0.5839203 5397:0.35460077 6152:0.23875587 6701:0.36756535 6876:0.28842651 9182:0.37323279 11825:0.34452019 
8.198626703395275 472:0.2641948 2632:0.36165818 6097:0.39825767 8699:0.42954128 8788:0.27242346 8968:0.42954128 13826:0.37995793 14242:0.23065408 
32 8688:0.58639061 9617:0.64650867 13900:0.4880293 
32 1642:0.40105119 2197:0.35269649 3895:0.37054277 5521:0.35269649 6816:0.38838905 8850:0.24671232 9254:0.24172424 12336:0.42769468 
32 70:0.44711389 160:0.2828511 5111:0.33237462 6096:0.44711389 6145:0.2897384 12510:0.2101783 14598:0.2171934 14637:0.35569678 14820:0.32845742 
32 379:0.39021803 1828:0.39021803 1862:0.33885356 6134:0.17640073 10313:0.24107355 12210:0.34517389 12335:0.36179834 13136:0.20307543 13530:0.39021803 16750:0.21875002 
32 892:0.367667 13752:0.37965357 15927:0.75930713 17001:0.37965357 
32 2665:0.70800642 3760:0.29433856 5791:0.37202886 6514:0.52315031 
32 6931:0.63067763 14173:0.62154184 15185:0.46468427 
32 2339:0.75628521 16750:0.65424207 
25.88250160272578 6645:0.36672658 7308:0.43556102 7722:0.31478398 8916:0.18435857 11657:0.43556102 12375:0.28472632 14598:0.21158139 15624:0.19354231 16148:0.43556102 
9.705824627698499 6588:0.48146663 10042:0.24098911 11015:0.48146663 11815:0.32284634 13055:0.41809109 13243:0.44640128 
32 4447:0.42047809 7089:0.54481136 14214:0.54481136 14810:0.47912351 
32 1147:0.17227461 1649:0.37319944 2237:0.34601922 3585:0.37319944 4468:0.34601922 8916:0.31592596 9132:0.22617099 9664:0.24544045 12263:0.24544045 15421:0.29165877 15531:0.16978767 16982:0.25878556 
32 2076:0.66521233 6632:0.47364099 14182:0.39390997 15456:0.42189064 
32 1147:0.16415293 5300:0.2695713 5984:0.14922615 6199:0.15773189 6324:0.35560539 11057:0.29547014 11104:0.22852261 12403:0.27564368 14388:0.35560539 14988:0.22611118 15771:0.29190896 16445:0.273508 16590:0.35560539 16792:0.21730946 
32 1061:0.42629623 3009:0.3819667 6152:0.2344781 9268:0.37599604 10042:0.28703379 10236:0.57345825 17065:0.25451364 
32 5766:0.39688298 6529:0.52162473 12510:0.26446528 14135:0.48854397 14524:0.3747336 15917:0.34835208 
32 4297:0.47488185 8749:0.40571029 12113:0.32179603 13699:0.47488185 14874:0.47488185 16638:0.23517689 
32 8667:0.31847718 9132:0.29612728 9205:0.21910734 10206:0.32993372 10766:0.24135933 10773:0.39664093 13345:0.2824253 14302:0.48863266 17036:0.34628363 
32 1639:0.49373069 2311:0.44619608 5430:0.28584139 6199:0.21899858 8325:0.44619608 15531:0.22462355 16622:0.4218136 
10.83227239699294 2153:0.45595016 4313:0.29872363 5829:0.4868239 11083:0.45595016 12510:0.24682115 13682:0.35979138 16638:0.26002896 
32 
32 4773:0.67403586 9205:0.30224382 16662:0.67403586 
32 662:0.57298246 2850:0.64775493 17089:0.50210024 
32 318:0.41143831 6906:0.53079281 13479:0.4469083 16020:0.49213502 16301:0.32719047 
32 1279:0.61235179 9272:0.46468939 15447:0.63960069 
32 1104:0.48632804 1655:0.58557437 3483:0.49062787 9381:0.42411317 
32 3894:0.58900362 15489:0.52148019 15525:0.41779561 16273:0.4545107 
6.152392018437536 335:0.66658793 855:0.66658793 10042:0.33364811 
32 485:0.41026492 6516:0.57114169 8204:0.71097107 
32 9350:0.60435908 10918:0.3768015 11433:0.57861158 15525:0.3974662 
32 1517:0.44120337 1596:0.28731899 2147:0.37829086 8661:0.23345525 9223:0.41646871 10766:0.22762941 13458:0.34257561 15004:0.42727353 
32 322:0.27506318 1079:0.2132342 1272:0.31930621 6142:0.20194257 6663:0.34092738 8066:0.26574571 9805:0.36770763 9812:0.36770763 10381:0.36770763 10503:0.17569523 14598:0.17862041 15415:0.183883 16673:0.21695204 
32 1842:0.38387041 4734:0.37174124 5539:0.33859612 5542:0.35444688 9104:0.24351912 10632:0.27872191 11853:0.51113361 16065:0.27554856 
32 4052:0.68054549 16006:0.73270583 
32 562:0.1541082 1071:0.19585375 1328:0.21031651 1815:0.26516042 1956:0.28048774 3939:0.28776468 4977:0.17630902 5287:0.2095668 5791:0.16308638 6579:0.27454204 7230:0.14784829 9179:0.24691076 9219:0.21267496 10199:0.31036894 10729:0.16829208 10818:0.22549249 11104:0.19945232 15441:0.21267496 17283:0.31036894 
32 91:0.34627853 2456:0.33152603 2884:0.31294008 4126:0.33152603 7625:0.33152603 8779:0.33152603 9401:0.31294008 9432:0.19170068 10603:0.31294008 11820:0.33152603 
32 4570:0.45993927 6116:0.31686643 10234:0.74281561 15670:0.36915647 
32 4853:0.63083872 4878:0.54657661 6116:0.29023803 16675:0.46803675 
32 5399:0.56319941 5991:0.38339618 6526:0.43934735 16065:0.36538962 17083:0.45746925 
32 1104:0.25369751 3872:0.26808027 6071:0.22673345 6134:0.16400935 6276:0.1861273 7230:0.34565561 10050:0.2283792 10713:0.21109824 11455:0.32092693 12014:0.27904694 13145:0.33638359 14577:0.36280692 15531:0.33011915 
32 2888:0.36288192 5003:0.34868593 9089:0.33808281 12336:0.40997352 12671:0.58346328 16065:0.20724568 17036:0.28456349 
32 36:0.45148102 1596:0.28148617 6134:0.20409508 6669:0.45148102 10050:0.28419765 14806:0.43224658 17232:0.45148102 
32 10444:0.66519815 11104:0.42747613 13795:0.48866581 17285:0.36875644 
32 3488:0.40188833 4513:0.38616641 6120:0.30027141 10107:0.37992705 12336:0.45404184 13739:0.31096421 16065:0.22952265 17187:0.3151514 
32 5585:0.52539157 5791:0.3561581 11077:0.33365557 14431:0.61254644 16773:0.33252957 
32 3267:0.33776144 5638:0.4284734 6213:0.37901332 10282:0.4284734 13822:0.36075907 15996:0.41021916 16600:0.27687602 
32 3760:0.18435924 5705:0.3922704 6276:0.22750422 6521:0.23379082 6925:0.22077612 8708:0.4434605 8773:0.30387366 10050:0.27914891 14242:0.23812839 14698:0.38508772 15525:0.29164873 
5.879385878078294 15414:0.69462895 15973:0.55391463 16150:0.45898715 
32 6701:0.32067797 6823:0.44237733 8850:0.30003453 14171:0.42328551 16283:0.40527508 16466:0.35043622 17383:0.38108158 
32 562:0.38494617 3595:0.30556858 3760:0.1611508 4993:0.26267432 6134:0.17523286 10454:0.25119466 11854:0.27733705 12336:0.39577523 12376:0.38763457 13525:0.29814272 13761:0.31139701 
32 1328:0.42546341 4313:0.35721035 8916:0.265755 9266:0.6278662 16215:0.47596215 
32 6116:0.24807985 8952:0.4181562 14416:0.58156234 15109:0.49685164 17096:0.42252276 
32 26:0.32855345 873:0.32855345 1733:0.28069617 1871:0.24136092 2632:0.27663009 3522:0.26137726 5119:0.30462481 5150:0.2639356 9181:0.28069617 10963:0.32855345 13488:0.29692151 16292:0.25467466 
31.92938584033956 1230:0.55774337 10697:0.32633973 11741:0.62236962 14598:0.32607508 17065:0.29791915 
32 475:0.30459665 5984:0.1557122 6134:0.16774094 6245:0.35525329 7462:0.24881451 9142:0.37106162 12108:0.37106162 12113:0.25144392 13283:0.25426357 13453:0.17662674 16753:0.21078627 16898:0.37106162 17268:0.22396866 
32 690:0.21507931 1351:0.232217 1871:0.26017973 2254:0.2426893 3760:0.14723888 6120:0.23914249 9895:0.59639764 10042:0.17727347 10264:0.18279668 10415:0.35417062 13453:0.16858656 15282:0.20822075 16611:0.27678758 
32 2148:0.45962949 4303:0.3346761 11815:0.3754555 12223:0.4714354 12291:0.55992363 
32 3130:1 
32 515:0.21282074 1693:0.32447752 2177:0.52134383 2273:0.22289365 3521:0.32447752 5282:0.17828203 5984:0.14222277 8661:0.17169175 8916:0.14345209 11757:0.33891637 16341:0.33891637 16600:0.219005 16792:0.20711084 
32 4130:0.43260699 5791:0.27358211 8385:0.36565915 9763:0.37250633 9786:0.49847151 10389:0.25920623 11101:0.29995578 12510:0.24474735 
4.193928058067448 5285:0.34175251 5883:0.52809703 7148:0.52809703 8996:0.38199415 14598:0.28386154 15455:0.31453993 
32 1147:0.33650764 5300:0.55261153 8610:0.61377333 11669:0.4523996 
32 489:0.59368149 5042:0.38151739 8777:0.41000963 16756:0.39809175 16865:0.41881001 
32 1561:0.58102989 1630:0.50454883 9104:0.26502642 16352:0.58102989 
32 3396:0.30433685 4986:0.25951839 6239:0.41427967 6457:0.28280314 7144:0.29640055 8624:0.41427967 11364:0.39663012 15236:0.41427967 
32 8996:0.2728995 10639:0.28717391 13005:0.28606336 14466:0.38706453 15978:0.41746891 16492:0.39968349 16996:0.41746891 17037:0.3210893 
32 5255:0.73405018 6405:0.44953414 11708:0.50900824 
10.69345513098221 1071:0.47966054 10818:0.55224805 13283:0.52085695 17072:0.44006351 
32 3224:0.77640406 10873:0.63023547 
32 953:0.37694219 1447:0.35962188 2571:0.36741014 3213:0.24688893 3760:0.16901509 6199:0.18032946 9182:0.25986137 10684:0.40655145 12332:0.29537201 14714:0.38923114 
32 2070:0.48917797 6120:0.33030193 10771:0.42478739 12498:0.41792403 14770:0.44208168 17322:0.31790647 
2.585015136351478 3630:0.37550444 4049:0.30063014 5984:0.19412283 7230:0.22036269 8478:0.46259404 13453:0.22019652 14217:0.37973368 14242:0.24840267 17151:0.46259404 
32 5743:0.65472717 6607:0.45257055 6609:0.4995582 15415:0.34198514 
32 3558:0.22665408 3793:0.24321414 7000:0.2563586 8352:0.25044806 8916:0.13059212 9370:0.22184257 9432:0.17080505 11988:0.45595491 14705:0.29538925 15139:0.2563586 15436:0.30853371 15535:0.2010937 16153:0.29538925 17407:0.28606311 
32 1216:0.40914622 6559:0.55371878 6667:0.38719513 13453:0.26357225 16111:0.55371878 
32 2543:0.64828441 11708:0.58447096 17072:0.48797646 
12.06115140224912 3105:0.50145014 8916:0.21224726 9766:0.50145014 9825:0.46492938 14598:0.24358818 15535:0.32683126 16971:0.26407085 
32 562:0.25729313 1351:0.33975211 3760:0.2154223 4986:0.32460501 9124:0.44997192 10558:0.37073712 15692:0.3524175 16671:0.44997192 
32 10879:0.74901465 13518:0.66255344 
32 1698:0.5115601 3552:0.60757973 4976:0.60757973 
32 1998:0.28907681 2253:0.40977901 3083:0.40977901 4613:0.36247688 6876:0.2024097 11136:0.2554861 12336:0.41838472 16353:0.40977901 
1.52785345093936 5179:0.51298512 6253:0.76761086 10042:0.38421325 
32 41:0.48134107 160:0.30450374 2904:0.41798206 3760:0.20010728 5042:0.30932409 7230:0.22929309 14676:0.4608345 15525:0.31656148 
19.30397907639174 690:0.25675735 5111:0.31430151 8167:0.42280175 10283:0.42280175 11262:0.33329053 12520:0.31627626 15567:0.24559281 16719:0.26747087 16804:0.36714828 
31.0199331375641 5285:0.21557981 6152:0.15072142 9445:0.36861625 9493:0.36861625 11149:0.17156751 11169:0.3149234 11844:0.30628078 12489:0.26640238 13575:0.28807697 14598:0.17906179 14629:0.24096451 15531:0.16770254 15991:0.25258792 16673:0.21748814 17234:0.23091333 
32 1485:0.19058349 6926:0.30818815 7421:0.3323967 8607:0.29402706 8847:0.24560997 9009:0.19307924 9190:0.22140142 9834:0.27986597 9906:0.3323967 10389:0.16548318 11795:0.2620251 13896:0.23667135 15670:0.16519092 16721:0.26443472 17065:0.29505023 
32 5128:0.44944366 6480:0.50240725 12876:0.34559556 13136:0.3373077 13453:0.30852234 13784:0.46603492 
32 3483:0.33291746 3645:0.47192505 6269:0.45181963 8345:0.47192505 8467:0.22057807 9437:0.30245346 17219:0.31538184 
32 698:0.48086079 1524:0.40486735 3817:0.48086079 10042:0.24068587 13573:0.36711438 14557:0.42535346 
32 1102:0.36158524 5652:0.53572422 11104:0.35959202 12059:0.55956329 17219:0.37394943 
22.9345109204781 515:0.23283953 1994:0.37079624 2455:0.37079624 4608:0.34379104 6116:0.15817234 6557:0.20876506 8661:0.18784179 9845:0.33509731 10766:0.18315422 11191:0.26277545 15417:0.25036841 15684:0.19982859 15919:0.22336322 16445:0.28519179 
32 245:0.29813061 1596:0.2558411 3017:0.22536059 3555:0.34549847 5074:0.3804626 5984:0.17219849 13519:0.31807713 14007:0.41034839 15146:0.35057681 15670:0.20393051 17107:0.25894431 
32 4993:0.42544715 7088:0.41683032 8793:0.53639035 10766:0.31012167 15300:0.40802145 16773:0.30801891 
32 1071:0.37164414 4741:0.58894352 8921:0.46026474 9381:0.35914244 13091:0.41737182 
32 1399:0.4068576 11283:0.34406305 11743:0.48322461 13300:0.3614755 13661:0.43670149 14171:0.4015081 
32 1709:0.37625276 3674:0.4064651 3676:0.4535626 6199:0.21698473 11825:0.28862842 12439:0.4683495 13307:0.2851168 14598:0.23763284 
32 1147:0.26051921 1941:0.46892644 5282:0.29687558 8916:0.2388767 9648:0.5643642 15624:0.25077624 16770:0.43086527 
32 95:0.25132132 348:0.25132132 2145:0.25132132 2184:0.16579816 6051:0.1582014 6197:0.23301751 8208:0.24061428 8269:0.25132132 8467:0.11746775 8641:0.45425001 8669:0.15596851 10715:0.21160344 12884:0.24061428 13308:0.24061428 15952:0.25132132 16750:0.14088673 16865:0.17729352 17174:0.25132132 
32 5027:0.41773984 5282:0.27071098 5984:0.21595708 6142:0.28262859 10503:0.24589414 14505:0.38496449 16382:0.51462496 17092:0.39011816 
32 5777:1 
30.82678665903587 853:0.2458265 1079:0.21608894 1798:0.27072736 4841:0.252507 5770:0.27374062 5937:0.37263043 6145:0.24147169 10013:0.28247735 10618:0.29121409 11474:0.37263043 16004:0.23342794 16007:0.31374131 17065:0.16538175 
32 72:0.48155603 1643:0.48155603 6959:0.29953921 15624:0.21398028 16578:0.48155603 16719:0.30463973 17313:0.2756714 
32 5811:0.56643807 10193:0.391542 10756:0.59164386 11191:0.4192855 
32 853:0.26192673 3304:0.29700191 5025:0.33920315 6701:0.24992541 6730:0.33428957 11256:0.32989421 14602:0.39703558 15031:0.2742016 15036:0.38012068 17292:0.26032202 
32 1147:0.36464855 5791:0.41508173 6199:0.35038489 11244:0.75628634 
5.276579139989416 353:0.44077109 1164:0.25203329 2094:0.35127169 2679:0.47539418 10264:0.24536332 14216:0.35339756 16638:0.23543061 17208:0.39024105 
32 7230:0.3586783 7722:0.27208255 10084:0.3764758 10114:0.3764758 13139:0.3764758 14364:0.33301797 15015:0.21551721 16403:0.31281123 16753:0.21386186 17036:0.26680044 
32 5285:0.26961868 5984:0.19346079 6134:0.20840561 8386:0.32825048 12651:0.37422381 13272:0.4610164 14650:0.4166314 16269:0.4610164 
15.56759571449339 6514:0.58956844 10875:0.70579007 11077:0.39277146 
32 1102:0.51331157 6152:0.32480302 9950:0.79436404 
32 6976:0.45238914 9294:0.48797195 14961:0.74647669 
32 562:0.15431919 1163:0.26988401 1896:0.23103731 2195:0.31079386 5558:0.2084021 6190:0.31079386 6977:0.18796924 8763:0.31079386 9720:0.31079386 10421:0.29755311 11173:0.26167716 14050:0.2522827 14606:0.31079386 16971:0.16366851 17322:0.20197839 
14.31988075490951 1361:0.5790186 4513:0.542298 8773:0.42792867 14213:0.43304432 
32 3483:0.25899323 9432:0.20324645 10196:0.2667342 11220:0.36713422 12252:0.36713422 12876:0.19575678 15139:0.30504937 15415:0.18359625 15919:0.22115726 15973:0.28028954 16418:0.35149321 17131:0.36713422 
32 2427:0.30200024 5079:0.36963601 8669:0.25932911 10316:0.31258886 10389:0.20803712 11468:0.298971 11823:0.41787239 13467:0.28976287 15991:0.28633984 16093:0.25645837 17289:0.26114619 
32 1379:0.35859301 2943:0.34331587 3319:0.35859301 4977:0.20370331 6285:0.268245 7472:0.34331587 11415:0.34331587 12530:0.35859301 14760:0.22409999 16471:0.31139135 
32 1504:0.2229644 5077:0.41912704 6977:0.50697908 9185:0.26070691 10310:0.35807676 11490:0.41912704 12757:0.30290699 17285:0.2323455 
32 16158:0.91894218 17058:0.39439229 
32 4685:0.50542602 7425:0.69934904 17058:0.50542602 
32 5833:0.47116794 6665:0.47116794 8850:0.27749735 16673:0.2779949 17036:0.33390676 17060:0.47116794 17285:0.26119467 
32 448:0.53863416 2150:0.51568674 3304:0.40292454 11960:0.4601764 16773:0.26425351 
31.33361566625117 1835:0.82940196 15624:0.5586523 
32 1071:0.35237584 1485:0.32017031 5715:0.34345657 10312:0.55840909 10766:0.27582529 14346:0.43640181 15670:0.27751211 
32 82:0.32970209 3762:0.26743676 6925:0.23473521 8654:0.45141204 12510:0.22164135 13854:0.30383214 15028:0.61283498 15624:0.20951156 
16.4319553798743 267:0.26652221 924:0.29369261 5226:0.32627427 5282:0.20908302 5984:0.16679396 6526:0.24666716 8811:0.39746944 12440:0.33957381 13744:0.31929761 15185:0.25019852 15455:0.21394465 16679:0.22186942 16756:0.26652221 
32 5539:0.3233675 5839:0.46077869 6701:0.32095028 8594:0.3865112 10632:0.26618618 11149:0.2373107 12198:0.40958939 12489:0.36848548 
32 3896:0.48196061 7466:0.39405571 7547:0.43191429 10873:0.42195618 14196:0.37376151 16150:0.32884559 
32 4570:0.27842954 5791:0.23628452 6886:0.32172234 8773:0.30812997 12017:0.44967199 12654:0.44967199 15017:0.38417251 16215:0.34087971 
32 1173:0.28927095 1867:0.49946516 3569:0.24859321 3951:0.28308552 5172:0.31846474 5173:0.35239175 6557:0.198403 7230:0.1678664 9132:0.21356086 9234:0.26196026 10697:0.17131939 15441:0.24147036 16773:0.17288312 
32 1164:0.39244032 5393:0.46151641 6134:0.33462826 8661:0.37499585 10729:0.40137933 16719:0.46828397 
23.34638173007258 6199:0.33446985 14335:0.72193461 15500:0.60575601 
16.05249066704356 1867:0.31158051 2913:0.42093291 8932:0.42093291 13136:0.22880782 13647:0.4396639 14847:0.4396639 15752:0.33103903 
16.68158807975249 10503:0.3413991 14140:0.7145046 15028:0.46434151 16631:0.39663181 
32 2188:0.31998248 3433:0.36848641 6521:0.19426474 6730:0.31025219 6925:0.18345039 7067:0.27227688 7230:0.1755333 11338:0.35278779 15076:0.36848641 15619:0.33300986 15733:0.25249895 16150:0.23311015 
32 7834:0.7729346 14037:0.6344857 
